digraph Tree {
node [shape=box, style="filled, rounded", color="black", fontname="helvetica"] ;
edge [fontname="helvetica"] ;
0 [label="housing <= 0.5\ngini = 0.5\nsamples = 6893\nvalue = [5492, 5457]\nclass = yes", fillcolor="#fffefe"] ;
1 [label="duration <= -0.72\ngini = 0.43\nsamples = 4129\nvalue = [2071, 4441]\nclass = no", fillcolor="#95cbf1"] ;
0 -> 1 [labeldistance=2.5, labelangle=45, headlabel="True"] ;
2 [label="contact_telephone <= 0.5\ngini = 0.31\nsamples = 528\nvalue = [662, 157]\nclass = yes", fillcolor="#eb9f68"] ;
1 -> 2 ;
3 [label="age <= -0.79\ngini = 0.32\nsamples = 497\nvalue = [613, 156]\nclass = yes", fillcolor="#eca16b"] ;
2 -> 3 ;
4 [label="job_management <= 0.5\ngini = 0.48\nsamples = 121\nvalue = [107, 68]\nclass = yes", fillcolor="#f6d1b7"] ;
3 -> 4 ;
5 [label="balance <= -0.43\ngini = 0.5\nsamples = 99\nvalue = [76, 64]\nclass = yes", fillcolor="#fbebe0"] ;
4 -> 5 ;
6 [label="job_technician <= 0.5\ngini = 0.15\nsamples = 18\nvalue = [22, 2]\nclass = yes", fillcolor="#e78c4b"] ;
5 -> 6 ;
7 [label="duration <= -0.99\ngini = 0.17\nsamples = 16\nvalue = [19, 2]\nclass = yes", fillcolor="#e88e4e"] ;
6 -> 7 ;
8 [label="gini = 0.0\nsamples = 10\nvalue = [14, 0]\nclass = yes", fillcolor="#e58139"] ;
7 -> 8 ;
9 [label="education <= 0.52\ngini = 0.41\nsamples = 6\nvalue = [5, 2]\nclass = yes", fillcolor="#efb388"] ;
7 -> 9 ;
10 [label="gini = 0.0\nsamples = 4\nvalue = [5, 0]\nclass = yes", fillcolor="#e58139"] ;
9 -> 10 ;
11 [label="gini = 0.0\nsamples = 2\nvalue = [0, 2]\nclass = no", fillcolor="#399de5"] ;
9 -> 11 ;
12 [label="gini = 0.0\nsamples = 2\nvalue = [3, 0]\nclass = yes", fillcolor="#e58139"] ;
6 -> 12 ;
13 [label="age <= -1.77\ngini = 0.5\nsamples = 81\nvalue = [54, 62]\nclass = no", fillcolor="#e5f2fc"] ;
5 -> 13 ;
14 [label="age <= -2.08\ngini = 0.2\nsamples = 11\nvalue = [2, 16]\nclass = no", fillcolor="#52a9e8"] ;
13 -> 14 ;
15 [label="gini = 0.0\nsamples = 1\nvalue = [1, 0]\nclass = yes", fillcolor="#e58139"] ;
14 -> 15 ;
16 [label="age <= -1.94\ngini = 0.11\nsamples = 10\nvalue = [1, 16]\nclass = no", fillcolor="#45a3e7"] ;
14 -> 16 ;
17 [label="campaign <= -0.47\ngini = 0.32\nsamples = 4\nvalue = [1, 4]\nclass = no", fillcolor="#6ab6ec"] ;
16 -> 17 ;
18 [label="gini = 0.0\nsamples = 1\nvalue = [1, 0]\nclass = yes", fillcolor="#e58139"] ;
17 -> 18 ;
19 [label="gini = 0.0\nsamples = 3\nvalue = [0, 4]\nclass = no", fillcolor="#399de5"] ;
17 -> 19 ;
20 [label="gini = 0.0\nsamples = 6\nvalue = [0, 12]\nclass = no", fillcolor="#399de5"] ;
16 -> 20 ;
21 [label="day <= -0.88\ngini = 0.5\nsamples = 70\nvalue = [52, 46]\nclass = yes", fillcolor="#fcf0e8"] ;
13 -> 21 ;
22 [label="age <= -0.92\ngini = 0.49\nsamples = 66\nvalue = [52, 41]\nclass = yes", fillcolor="#fae4d5"] ;
21 -> 22 ;
23 [label="duration <= -0.91\ngini = 0.5\nsamples = 61\nvalue = [45, 41]\nclass = yes", fillcolor="#fdf4ed"] ;
22 -> 23 ;
24 [label="duration <= -1.16\ngini = 0.42\nsamples = 31\nvalue = [33, 14]\nclass = yes", fillcolor="#f0b68d"] ;
23 -> 24 ;
25 [label="job_technician <= 0.5\ngini = 0.2\nsamples = 13\nvalue = [16, 2]\nclass = yes", fillcolor="#e89152"] ;
24 -> 25 ;
26 [label="age <= -1.13\ngini = 0.12\nsamples = 11\nvalue = [15, 1]\nclass = yes", fillcolor="#e78946"] ;
25 -> 26 ;
27 [label="gini = 0.0\nsamples = 8\nvalue = [13, 0]\nclass = yes", fillcolor="#e58139"] ;
26 -> 27 ;
28 [label="marital_single <= 0.5\ngini = 0.44\nsamples = 3\nvalue = [2, 1]\nclass = yes", fillcolor="#f2c09c"] ;
26 -> 28 ;
29 [label="gini = 0.0\nsamples = 1\nvalue = [1, 0]\nclass = yes", fillcolor="#e58139"] ;
28 -> 29 ;
30 [label="month <= -1.18\ngini = 0.5\nsamples = 2\nvalue = [1, 1]\nclass = yes", fillcolor="#ffffff"] ;
28 -> 30 ;
31 [label="gini = 0.0\nsamples = 1\nvalue = [1, 0]\nclass = yes", fillcolor="#e58139"] ;
30 -> 31 ;
32 [label="gini = 0.0\nsamples = 1\nvalue = [0, 1]\nclass = no", fillcolor="#399de5"] ;
30 -> 32 ;
33 [label="duration <= -1.3\ngini = 0.5\nsamples = 2\nvalue = [1, 1]\nclass = yes", fillcolor="#ffffff"] ;
25 -> 33 ;
34 [label="gini = 0.0\nsamples = 1\nvalue = [0, 1]\nclass = no", fillcolor="#399de5"] ;
33 -> 34 ;
35 [label="gini = 0.0\nsamples = 1\nvalue = [1, 0]\nclass = yes", fillcolor="#e58139"] ;
33 -> 35 ;
36 [label="previous <= 0.5\ngini = 0.49\nsamples = 18\nvalue = [17, 12]\nclass = yes", fillcolor="#f7dac5"] ;
24 -> 36 ;
37 [label="job_admin. <= 0.5\ngini = 0.5\nsamples = 15\nvalue = [12, 12]\nclass = yes", fillcolor="#ffffff"] ;
36 -> 37 ;
38 [label="campaign <= 1.81\ngini = 0.42\nsamples = 11\nvalue = [5, 12]\nclass = no", fillcolor="#8bc6f0"] ;
37 -> 38 ;
39 [label="education <= 0.52\ngini = 0.38\nsamples = 10\nvalue = [4, 12]\nclass = no", fillcolor="#7bbeee"] ;
38 -> 39 ;
40 [label="month <= -0.68\ngini = 0.22\nsamples = 5\nvalue = [1, 7]\nclass = no", fillcolor="#55abe9"] ;
39 -> 40 ;
41 [label="job_technician <= 0.5\ngini = 0.5\nsamples = 2\nvalue = [1, 1]\nclass = yes", fillcolor="#ffffff"] ;
40 -> 41 ;
42 [label="gini = 0.0\nsamples = 1\nvalue = [1, 0]\nclass = yes", fillcolor="#e58139"] ;
41 -> 42 ;
43 [label="gini = 0.0\nsamples = 1\nvalue = [0, 1]\nclass = no", fillcolor="#399de5"] ;
41 -> 43 ;
44 [label="gini = 0.0\nsamples = 3\nvalue = [0, 6]\nclass = no", fillcolor="#399de5"] ;
40 -> 44 ;
45 [label="campaign <= 0.5\ngini = 0.47\nsamples = 5\nvalue = [3, 5]\nclass = no", fillcolor="#b0d8f5"] ;
39 -> 45 ;
46 [label="duration <= -1.02\ngini = 0.48\nsamples = 3\nvalue = [3, 2]\nclass = yes", fillcolor="#f6d5bd"] ;
45 -> 46 ;
47 [label="gini = 0.0\nsamples = 1\nvalue = [0, 2]\nclass = no", fillcolor="#399de5"] ;
46 -> 47 ;
48 [label="gini = 0.0\nsamples = 2\nvalue = [3, 0]\nclass = yes", fillcolor="#e58139"] ;
46 -> 48 ;
49 [label="gini = 0.0\nsamples = 2\nvalue = [0, 3]\nclass = no", fillcolor="#399de5"] ;
45 -> 49 ;
50 [label="gini = 0.0\nsamples = 1\nvalue = [1, 0]\nclass = yes", fillcolor="#e58139"] ;
38 -> 50 ;
51 [label="gini = 0.0\nsamples = 4\nvalue = [7, 0]\nclass = yes", fillcolor="#e58139"] ;
37 -> 51 ;
52 [label="gini = 0.0\nsamples = 3\nvalue = [5, 0]\nclass = yes", fillcolor="#e58139"] ;
36 -> 52 ;
53 [label="marital_single <= 0.5\ngini = 0.43\nsamples = 30\nvalue = [12, 27]\nclass = no", fillcolor="#91c9f1"] ;
23 -> 53 ;
54 [label="job_admin. <= 0.5\ngini = 0.48\nsamples = 4\nvalue = [3, 2]\nclass = yes", fillcolor="#f6d5bd"] ;
53 -> 54 ;
55 [label="gini = 0.0\nsamples = 2\nvalue = [0, 2]\nclass = no", fillcolor="#399de5"] ;
54 -> 55 ;
56 [label="gini = 0.0\nsamples = 2\nvalue = [3, 0]\nclass = yes", fillcolor="#e58139"] ;
54 -> 56 ;
57 [label="balance <= -0.06\ngini = 0.39\nsamples = 26\nvalue = [9, 25]\nclass = no", fillcolor="#80c0ee"] ;
53 -> 57 ;
58 [label="loan <= 0.5\ngini = 0.29\nsamples = 22\nvalue = [5, 23]\nclass = no", fillcolor="#64b2eb"] ;
57 -> 58 ;
59 [label="age <= -1.42\ngini = 0.31\nsamples = 20\nvalue = [5, 21]\nclass = no", fillcolor="#68b4eb"] ;
58 -> 59 ;
60 [label="gini = 0.0\nsamples = 5\nvalue = [0, 7]\nclass = no", fillcolor="#399de5"] ;
59 -> 60 ;
61 [label="previous <= 0.5\ngini = 0.39\nsamples = 15\nvalue = [5, 14]\nclass = no", fillcolor="#80c0ee"] ;
59 -> 61 ;
62 [label="month <= 0.47\ngini = 0.47\nsamples = 6\nvalue = [3, 5]\nclass = no", fillcolor="#b0d8f5"] ;
61 -> 62 ;
63 [label="gini = 0.0\nsamples = 4\nvalue = [0, 5]\nclass = no", fillcolor="#399de5"] ;
62 -> 63 ;
64 [label="gini = 0.0\nsamples = 2\nvalue = [3, 0]\nclass = yes", fillcolor="#e58139"] ;
62 -> 64 ;
65 [label="job_admin. <= 0.5\ngini = 0.3\nsamples = 9\nvalue = [2, 9]\nclass = no", fillcolor="#65b3eb"] ;
61 -> 65 ;
66 [label="gini = 0.0\nsamples = 7\nvalue = [0, 9]\nclass = no", fillcolor="#399de5"] ;
65 -> 66 ;
67 [label="gini = 0.0\nsamples = 2\nvalue = [2, 0]\nclass = yes", fillcolor="#e58139"] ;
65 -> 67 ;
68 [label="gini = 0.0\nsamples = 2\nvalue = [0, 2]\nclass = no", fillcolor="#399de5"] ;
58 -> 68 ;
69 [label="age <= -1.2\ngini = 0.44\nsamples = 4\nvalue = [4, 2]\nclass = yes", fillcolor="#f2c09c"] ;
57 -> 69 ;
70 [label="gini = 0.0\nsamples = 1\nvalue = [0, 1]\nclass = no", fillcolor="#399de5"] ;
69 -> 70 ;
71 [label="duration <= -0.82\ngini = 0.32\nsamples = 3\nvalue = [4, 1]\nclass = yes", fillcolor="#eca06a"] ;
69 -> 71 ;
72 [label="gini = 0.0\nsamples = 2\nvalue = [4, 0]\nclass = yes", fillcolor="#e58139"] ;
71 -> 72 ;
73 [label="gini = 0.0\nsamples = 1\nvalue = [0, 1]\nclass = no", fillcolor="#399de5"] ;
71 -> 73 ;
74 [label="gini = 0.0\nsamples = 5\nvalue = [7, 0]\nclass = yes", fillcolor="#e58139"] ;
22 -> 74 ;
75 [label="gini = 0.0\nsamples = 4\nvalue = [0, 5]\nclass = no", fillcolor="#399de5"] ;
21 -> 75 ;
76 [label="marital_single <= 0.5\ngini = 0.2\nsamples = 22\nvalue = [31, 4]\nclass = yes", fillcolor="#e89153"] ;
4 -> 76 ;
77 [label="gini = 0.0\nsamples = 5\nvalue = [7, 0]\nclass = yes", fillcolor="#e58139"] ;
76 -> 77 ;
78 [label="age <= -0.97\ngini = 0.24\nsamples = 17\nvalue = [24, 4]\nclass = yes", fillcolor="#e9965a"] ;
76 -> 78 ;
79 [label="campaign <= -0.38\ngini = 0.08\nsamples = 14\nvalue = [23, 1]\nclass = yes", fillcolor="#e68642"] ;
78 -> 79 ;
80 [label="month <= -1.0\ngini = 0.17\nsamples = 7\nvalue = [10, 1]\nclass = yes", fillcolor="#e88e4d"] ;
79 -> 80 ;
81 [label="age <= -1.05\ngini = 0.5\nsamples = 2\nvalue = [1, 1]\nclass = yes", fillcolor="#ffffff"] ;
80 -> 81 ;
82 [label="gini = 0.0\nsamples = 1\nvalue = [0, 1]\nclass = no", fillcolor="#399de5"] ;
81 -> 82 ;
83 [label="gini = 0.0\nsamples = 1\nvalue = [1, 0]\nclass = yes", fillcolor="#e58139"] ;
81 -> 83 ;
84 [label="gini = 0.0\nsamples = 5\nvalue = [9, 0]\nclass = yes", fillcolor="#e58139"] ;
80 -> 84 ;
85 [label="gini = 0.0\nsamples = 7\nvalue = [13, 0]\nclass = yes", fillcolor="#e58139"] ;
79 -> 85 ;
86 [label="duration <= -0.82\ngini = 0.38\nsamples = 3\nvalue = [1, 3]\nclass = no", fillcolor="#7bbeee"] ;
78 -> 86 ;
87 [label="gini = 0.0\nsamples = 2\nvalue = [0, 3]\nclass = no", fillcolor="#399de5"] ;
86 -> 87 ;
88 [label="gini = 0.0\nsamples = 1\nvalue = [1, 0]\nclass = yes", fillcolor="#e58139"] ;
86 -> 88 ;
89 [label="day <= 1.76\ngini = 0.25\nsamples = 376\nvalue = [506, 88]\nclass = yes", fillcolor="#ea975b"] ;
3 -> 89 ;
90 [label="job_services <= 0.5\ngini = 0.22\nsamples = 352\nvalue = [487, 70]\nclass = yes", fillcolor="#e99355"] ;
89 -> 90 ;
91 [label="duration <= -1.01\ngini = 0.23\nsamples = 332\nvalue = [454, 70]\nclass = yes", fillcolor="#e99458"] ;
90 -> 91 ;
92 [label="contact_cellular <= 0.5\ngini = 0.1\nsamples = 171\nvalue = [262, 14]\nclass = yes", fillcolor="#e68844"] ;
91 -> 92 ;
93 [label="gini = 0.0\nsamples = 1\nvalue = [0, 2]\nclass = no", fillcolor="#399de5"] ;
92 -> 93 ;
94 [label="month <= -0.94\ngini = 0.08\nsamples = 170\nvalue = [262, 12]\nclass = yes", fillcolor="#e68742"] ;
92 -> 94 ;
95 [label="campaign <= 1.68\ngini = 0.37\nsamples = 24\nvalue = [25, 8]\nclass = yes", fillcolor="#eda978"] ;
94 -> 95 ;
96 [label="day <= 1.69\ngini = 0.15\nsamples = 20\nvalue = [23, 2]\nclass = yes", fillcolor="#e78c4a"] ;
95 -> 96 ;
97 [label="month <= -1.15\ngini = 0.08\nsamples = 19\nvalue = [23, 1]\nclass = yes", fillcolor="#e68642"] ;
96 -> 97 ;
98 [label="gini = 0.0\nsamples = 18\nvalue = [23, 0]\nclass = yes", fillcolor="#e58139"] ;
97 -> 98 ;
99 [label="gini = 0.0\nsamples = 1\nvalue = [0, 1]\nclass = no", fillcolor="#399de5"] ;
97 -> 99 ;
100 [label="gini = 0.0\nsamples = 1\nvalue = [0, 1]\nclass = no", fillcolor="#399de5"] ;
96 -> 100 ;
101 [label="day <= 0.13\ngini = 0.38\nsamples = 4\nvalue = [2, 6]\nclass = no", fillcolor="#7bbeee"] ;
95 -> 101 ;
102 [label="gini = 0.0\nsamples = 3\nvalue = [0, 6]\nclass = no", fillcolor="#399de5"] ;
101 -> 102 ;
103 [label="gini = 0.0\nsamples = 1\nvalue = [2, 0]\nclass = yes", fillcolor="#e58139"] ;
101 -> 103 ;
104 [label="job_admin. <= 0.5\ngini = 0.03\nsamples = 146\nvalue = [237, 4]\nclass = yes", fillcolor="#e5833c"] ;
94 -> 104 ;
105 [label="balance <= 0.47\ngini = 0.02\nsamples = 128\nvalue = [209, 2]\nclass = yes", fillcolor="#e5823b"] ;
104 -> 105 ;
106 [label="gini = 0.0\nsamples = 104\nvalue = [175, 0]\nclass = yes", fillcolor="#e58139"] ;
105 -> 106 ;
107 [label="marital_married <= 0.5\ngini = 0.1\nsamples = 24\nvalue = [34, 2]\nclass = yes", fillcolor="#e78845"] ;
105 -> 107 ;
108 [label="previous <= 0.5\ngini = 0.28\nsamples = 8\nvalue = [10, 2]\nclass = yes", fillcolor="#ea9a61"] ;
107 -> 108 ;
109 [label="gini = 0.0\nsamples = 7\nvalue = [10, 0]\nclass = yes", fillcolor="#e58139"] ;
108 -> 109 ;
110 [label="gini = 0.0\nsamples = 1\nvalue = [0, 2]\nclass = no", fillcolor="#399de5"] ;
108 -> 110 ;
111 [label="gini = 0.0\nsamples = 16\nvalue = [24, 0]\nclass = yes", fillcolor="#e58139"] ;
107 -> 111 ;
112 [label="balance <= -0.29\ngini = 0.12\nsamples = 18\nvalue = [28, 2]\nclass = yes", fillcolor="#e78a47"] ;
104 -> 112 ;
113 [label="gini = 0.0\nsamples = 9\nvalue = [15, 0]\nclass = yes", fillcolor="#e58139"] ;
112 -> 113 ;
114 [label="day <= -0.39\ngini = 0.23\nsamples = 9\nvalue = [13, 2]\nclass = yes", fillcolor="#e99457"] ;
112 -> 114 ;
115 [label="education <= 0.52\ngini = 0.48\nsamples = 4\nvalue = [3, 2]\nclass = yes", fillcolor="#f6d5bd"] ;
114 -> 115 ;
116 [label="gini = 0.0\nsamples = 1\nvalue = [2, 0]\nclass = yes", fillcolor="#e58139"] ;
115 -> 116 ;
117 [label="duration <= -1.23\ngini = 0.44\nsamples = 3\nvalue = [1, 2]\nclass = no", fillcolor="#9ccef2"] ;
115 -> 117 ;
118 [label="gini = 0.0\nsamples = 1\nvalue = [1, 0]\nclass = yes", fillcolor="#e58139"] ;
117 -> 118 ;
119 [label="gini = 0.0\nsamples = 2\nvalue = [0, 2]\nclass = no", fillcolor="#399de5"] ;
117 -> 119 ;
120 [label="gini = 0.0\nsamples = 5\nvalue = [10, 0]\nclass = yes", fillcolor="#e58139"] ;
114 -> 120 ;
121 [label="job_admin. <= 0.5\ngini = 0.35\nsamples = 161\nvalue = [192, 56]\nclass = yes", fillcolor="#eda673"] ;
91 -> 121 ;
122 [label="previous <= 0.5\ngini = 0.37\nsamples = 149\nvalue = [172, 56]\nclass = yes", fillcolor="#edaa79"] ;
121 -> 122 ;
123 [label="day <= -0.45\ngini = 0.31\nsamples = 131\nvalue = [160, 38]\nclass = yes", fillcolor="#eb9f68"] ;
122 -> 123 ;
124 [label="job_management <= 0.5\ngini = 0.46\nsamples = 29\nvalue = [26, 15]\nclass = yes", fillcolor="#f4caab"] ;
123 -> 124 ;
125 [label="duration <= -0.99\ngini = 0.42\nsamples = 19\nvalue = [19, 8]\nclass = yes", fillcolor="#f0b68c"] ;
124 -> 125 ;
126 [label="gini = 0.0\nsamples = 2\nvalue = [0, 4]\nclass = no", fillcolor="#399de5"] ;
125 -> 126 ;
127 [label="balance <= -0.32\ngini = 0.29\nsamples = 17\nvalue = [19, 4]\nclass = yes", fillcolor="#ea9c63"] ;
125 -> 127 ;
128 [label="gini = 0.0\nsamples = 6\nvalue = [11, 0]\nclass = yes", fillcolor="#e58139"] ;
127 -> 128 ;
129 [label="marital_married <= 0.5\ngini = 0.44\nsamples = 11\nvalue = [8, 4]\nclass = yes", fillcolor="#f2c09c"] ;
127 -> 129 ;
130 [label="job_technician <= 0.5\ngini = 0.48\nsamples = 5\nvalue = [2, 3]\nclass = no", fillcolor="#bddef6"] ;
129 -> 130 ;
131 [label="gini = 0.0\nsamples = 1\nvalue = [0, 1]\nclass = no", fillcolor="#399de5"] ;
130 -> 131 ;
132 [label="age <= -0.76\ngini = 0.5\nsamples = 4\nvalue = [2, 2]\nclass = yes", fillcolor="#ffffff"] ;
130 -> 132 ;
133 [label="gini = 0.0\nsamples = 2\nvalue = [2, 0]\nclass = yes", fillcolor="#e58139"] ;
132 -> 133 ;
134 [label="gini = 0.0\nsamples = 2\nvalue = [0, 2]\nclass = no", fillcolor="#399de5"] ;
132 -> 134 ;
135 [label="age <= -0.54\ngini = 0.24\nsamples = 6\nvalue = [6, 1]\nclass = yes", fillcolor="#e9965a"] ;
129 -> 135 ;
136 [label="gini = 0.0\nsamples = 5\nvalue = [6, 0]\nclass = yes", fillcolor="#e58139"] ;
135 -> 136 ;
137 [label="gini = 0.0\nsamples = 1\nvalue = [0, 1]\nclass = no", fillcolor="#399de5"] ;
135 -> 137 ;
138 [label="day <= -0.54\ngini = 0.5\nsamples = 10\nvalue = [7, 7]\nclass = yes", fillcolor="#ffffff"] ;
124 -> 138 ;
139 [label="day <= -0.55\ngini = 0.35\nsamples = 7\nvalue = [7, 2]\nclass = yes", fillcolor="#eca572"] ;
138 -> 139 ;
140 [label="age <= -0.61\ngini = 0.48\nsamples = 5\nvalue = [3, 2]\nclass = yes", fillcolor="#f6d5bd"] ;
139 -> 140 ;
141 [label="month <= -0.07\ngini = 0.38\nsamples = 4\nvalue = [3, 1]\nclass = yes", fillcolor="#eeab7b"] ;
140 -> 141 ;
142 [label="gini = 0.0\nsamples = 1\nvalue = [0, 1]\nclass = no", fillcolor="#399de5"] ;
141 -> 142 ;
143 [label="gini = 0.0\nsamples = 3\nvalue = [3, 0]\nclass = yes", fillcolor="#e58139"] ;
141 -> 143 ;
144 [label="gini = 0.0\nsamples = 1\nvalue = [0, 1]\nclass = no", fillcolor="#399de5"] ;
140 -> 144 ;
145 [label="gini = 0.0\nsamples = 2\nvalue = [4, 0]\nclass = yes", fillcolor="#e58139"] ;
139 -> 145 ;
146 [label="gini = 0.0\nsamples = 3\nvalue = [0, 5]\nclass = no", fillcolor="#399de5"] ;
138 -> 146 ;
147 [label="education <= 0.52\ngini = 0.25\nsamples = 102\nvalue = [134, 23]\nclass = yes", fillcolor="#e9975b"] ;
123 -> 147 ;
148 [label="marital_single <= 0.5\ngini = 0.09\nsamples = 57\nvalue = [81, 4]\nclass = yes", fillcolor="#e68743"] ;
147 -> 148 ;
149 [label="gini = 0.0\nsamples = 43\nvalue = [66, 0]\nclass = yes", fillcolor="#e58139"] ;
148 -> 149 ;
150 [label="day <= 1.45\ngini = 0.33\nsamples = 14\nvalue = [15, 4]\nclass = yes", fillcolor="#eca36e"] ;
148 -> 150 ;
151 [label="balance <= -0.5\ngini = 0.21\nsamples = 13\nvalue = [15, 2]\nclass = yes", fillcolor="#e89253"] ;
150 -> 151 ;
152 [label="gini = 0.0\nsamples = 1\nvalue = [0, 1]\nclass = no", fillcolor="#399de5"] ;
151 -> 152 ;
153 [label="age <= -0.2\ngini = 0.12\nsamples = 12\nvalue = [15, 1]\nclass = yes", fillcolor="#e78946"] ;
151 -> 153 ;
154 [label="duration <= -0.88\ngini = 0.44\nsamples = 3\nvalue = [2, 1]\nclass = yes", fillcolor="#f2c09c"] ;
153 -> 154 ;
155 [label="gini = 0.0\nsamples = 1\nvalue = [0, 1]\nclass = no", fillcolor="#399de5"] ;
154 -> 155 ;
156 [label="gini = 0.0\nsamples = 2\nvalue = [2, 0]\nclass = yes", fillcolor="#e58139"] ;
154 -> 156 ;
157 [label="gini = 0.0\nsamples = 9\nvalue = [13, 0]\nclass = yes", fillcolor="#e58139"] ;
153 -> 157 ;
158 [label="gini = 0.0\nsamples = 1\nvalue = [0, 2]\nclass = no", fillcolor="#399de5"] ;
150 -> 158 ;
159 [label="campaign <= 0.1\ngini = 0.39\nsamples = 45\nvalue = [53, 19]\nclass = yes", fillcolor="#eeae80"] ;
147 -> 159 ;
160 [label="month <= 2.0\ngini = 0.49\nsamples = 14\nvalue = [10, 13]\nclass = no", fillcolor="#d1e8f9"] ;
159 -> 160 ;
161 [label="duration <= -0.87\ngini = 0.43\nsamples = 11\nvalue = [6, 13]\nclass = no", fillcolor="#94caf1"] ;
160 -> 161 ;
162 [label="gini = 0.0\nsamples = 5\nvalue = [0, 9]\nclass = no", fillcolor="#399de5"] ;
161 -> 162 ;
163 [label="job_self-employed <= 0.5\ngini = 0.48\nsamples = 6\nvalue = [6, 4]\nclass = yes", fillcolor="#f6d5bd"] ;
161 -> 163 ;
164 [label="day <= 0.2\ngini = 0.49\nsamples = 5\nvalue = [5, 4]\nclass = yes", fillcolor="#fae6d7"] ;
163 -> 164 ;
165 [label="gini = 0.0\nsamples = 2\nvalue = [5, 0]\nclass = yes", fillcolor="#e58139"] ;
164 -> 165 ;
166 [label="gini = 0.0\nsamples = 3\nvalue = [0, 4]\nclass = no", fillcolor="#399de5"] ;
164 -> 166 ;
167 [label="gini = 0.0\nsamples = 1\nvalue = [1, 0]\nclass = yes", fillcolor="#e58139"] ;
163 -> 167 ;
168 [label="gini = 0.0\nsamples = 3\nvalue = [4, 0]\nclass = yes", fillcolor="#e58139"] ;
160 -> 168 ;
169 [label="marital_divorced <= 0.5\ngini = 0.21\nsamples = 31\nvalue = [43, 6]\nclass = yes", fillcolor="#e99355"] ;
159 -> 169 ;
170 [label="campaign <= 0.65\ngini = 0.24\nsamples = 27\nvalue = [38, 6]\nclass = yes", fillcolor="#e99558"] ;
169 -> 170 ;
171 [label="month <= -0.7\ngini = 0.12\nsamples = 21\nvalue = [30, 2]\nclass = yes", fillcolor="#e78946"] ;
170 -> 171 ;
172 [label="balance <= -0.6\ngini = 0.44\nsamples = 2\nvalue = [1, 2]\nclass = no", fillcolor="#9ccef2"] ;
171 -> 172 ;
173 [label="gini = 0.0\nsamples = 1\nvalue = [1, 0]\nclass = yes", fillcolor="#e58139"] ;
172 -> 173 ;
174 [label="gini = 0.0\nsamples = 1\nvalue = [0, 2]\nclass = no", fillcolor="#399de5"] ;
172 -> 174 ;
175 [label="gini = 0.0\nsamples = 19\nvalue = [29, 0]\nclass = yes", fillcolor="#e58139"] ;
171 -> 175 ;
176 [label="balance <= 2.2\ngini = 0.44\nsamples = 6\nvalue = [8, 4]\nclass = yes", fillcolor="#f2c09c"] ;
170 -> 176 ;
177 [label="gini = 0.0\nsamples = 5\nvalue = [8, 0]\nclass = yes", fillcolor="#e58139"] ;
176 -> 177 ;
178 [label="gini = 0.0\nsamples = 1\nvalue = [0, 4]\nclass = no", fillcolor="#399de5"] ;
176 -> 178 ;
179 [label="gini = 0.0\nsamples = 4\nvalue = [5, 0]\nclass = yes", fillcolor="#e58139"] ;
169 -> 179 ;
180 [label="job_blue-collar <= 0.5\ngini = 0.48\nsamples = 18\nvalue = [12, 18]\nclass = no", fillcolor="#bddef6"] ;
122 -> 180 ;
181 [label="job_management <= 0.5\ngini = 0.5\nsamples = 15\nvalue = [12, 13]\nclass = no", fillcolor="#f0f7fd"] ;
180 -> 181 ;
182 [label="marital_married <= 0.5\ngini = 0.38\nsamples = 8\nvalue = [9, 3]\nclass = yes", fillcolor="#eeab7b"] ;
181 -> 182 ;
183 [label="month <= 0.17\ngini = 0.47\nsamples = 5\nvalue = [5, 3]\nclass = yes", fillcolor="#f5cdb0"] ;
182 -> 183 ;
184 [label="marital_single <= 0.5\ngini = 0.38\nsamples = 3\nvalue = [1, 3]\nclass = no", fillcolor="#7bbeee"] ;
183 -> 184 ;
185 [label="gini = 0.0\nsamples = 1\nvalue = [0, 1]\nclass = no", fillcolor="#399de5"] ;
184 -> 185 ;
186 [label="balance <= -0.39\ngini = 0.44\nsamples = 2\nvalue = [1, 2]\nclass = no", fillcolor="#9ccef2"] ;
184 -> 186 ;
187 [label="gini = 0.0\nsamples = 1\nvalue = [1, 0]\nclass = yes", fillcolor="#e58139"] ;
186 -> 187 ;
188 [label="gini = 0.0\nsamples = 1\nvalue = [0, 2]\nclass = no", fillcolor="#399de5"] ;
186 -> 188 ;
189 [label="gini = 0.0\nsamples = 2\nvalue = [4, 0]\nclass = yes", fillcolor="#e58139"] ;
183 -> 189 ;
190 [label="gini = 0.0\nsamples = 3\nvalue = [4, 0]\nclass = yes", fillcolor="#e58139"] ;
182 -> 190 ;
191 [label="duration <= -0.8\ngini = 0.36\nsamples = 7\nvalue = [3, 10]\nclass = no", fillcolor="#74baed"] ;
181 -> 191 ;
192 [label="marital_single <= 0.5\ngini = 0.47\nsamples = 4\nvalue = [3, 5]\nclass = no", fillcolor="#b0d8f5"] ;
191 -> 192 ;
193 [label="age <= -0.06\ngini = 0.41\nsamples = 3\nvalue = [2, 5]\nclass = no", fillcolor="#88c4ef"] ;
192 -> 193 ;
194 [label="gini = 0.0\nsamples = 1\nvalue = [2, 0]\nclass = yes", fillcolor="#e58139"] ;
193 -> 194 ;
195 [label="gini = 0.0\nsamples = 2\nvalue = [0, 5]\nclass = no", fillcolor="#399de5"] ;
193 -> 195 ;
196 [label="gini = 0.0\nsamples = 1\nvalue = [1, 0]\nclass = yes", fillcolor="#e58139"] ;
192 -> 196 ;
197 [label="gini = 0.0\nsamples = 3\nvalue = [0, 5]\nclass = no", fillcolor="#399de5"] ;
191 -> 197 ;
198 [label="gini = 0.0\nsamples = 3\nvalue = [0, 5]\nclass = no", fillcolor="#399de5"] ;
180 -> 198 ;
199 [label="gini = 0.0\nsamples = 12\nvalue = [20, 0]\nclass = yes", fillcolor="#e58139"] ;
121 -> 199 ;
200 [label="gini = 0.0\nsamples = 20\nvalue = [33, 0]\nclass = yes", fillcolor="#e58139"] ;
90 -> 200 ;
201 [label="job_management <= 0.5\ngini = 0.5\nsamples = 24\nvalue = [19, 18]\nclass = yes", fillcolor="#fef8f5"] ;
89 -> 201 ;
202 [label="balance <= -0.42\ngini = 0.48\nsamples = 19\nvalue = [12, 18]\nclass = no", fillcolor="#bddef6"] ;
201 -> 202 ;
203 [label="gini = 0.0\nsamples = 5\nvalue = [5, 0]\nclass = yes", fillcolor="#e58139"] ;
202 -> 203 ;
204 [label="day <= 1.99\ngini = 0.4\nsamples = 14\nvalue = [7, 18]\nclass = no", fillcolor="#86c3ef"] ;
202 -> 204 ;
205 [label="day <= 1.85\ngini = 0.12\nsamples = 9\nvalue = [1, 15]\nclass = no", fillcolor="#46a4e7"] ;
204 -> 205 ;
206 [label="gini = 0.0\nsamples = 4\nvalue = [0, 8]\nclass = no", fillcolor="#399de5"] ;
205 -> 206 ;
207 [label="campaign <= 0.65\ngini = 0.22\nsamples = 5\nvalue = [1, 7]\nclass = no", fillcolor="#55abe9"] ;
205 -> 207 ;
208 [label="gini = 0.0\nsamples = 4\nvalue = [0, 7]\nclass = no", fillcolor="#399de5"] ;
207 -> 208 ;
209 [label="gini = 0.0\nsamples = 1\nvalue = [1, 0]\nclass = yes", fillcolor="#e58139"] ;
207 -> 209 ;
210 [label="job_blue-collar <= 0.5\ngini = 0.44\nsamples = 5\nvalue = [6, 3]\nclass = yes", fillcolor="#f2c09c"] ;
204 -> 210 ;
211 [label="default <= 0.5\ngini = 0.5\nsamples = 3\nvalue = [3, 3]\nclass = yes", fillcolor="#ffffff"] ;
210 -> 211 ;
212 [label="job_entrepreneur <= 0.5\ngini = 0.38\nsamples = 2\nvalue = [1, 3]\nclass = no", fillcolor="#7bbeee"] ;
211 -> 212 ;
213 [label="gini = 0.0\nsamples = 1\nvalue = [0, 3]\nclass = no", fillcolor="#399de5"] ;
212 -> 213 ;
214 [label="gini = 0.0\nsamples = 1\nvalue = [1, 0]\nclass = yes", fillcolor="#e58139"] ;
212 -> 214 ;
215 [label="gini = 0.0\nsamples = 1\nvalue = [2, 0]\nclass = yes", fillcolor="#e58139"] ;
211 -> 215 ;
216 [label="gini = 0.0\nsamples = 2\nvalue = [3, 0]\nclass = yes", fillcolor="#e58139"] ;
210 -> 216 ;
217 [label="gini = 0.0\nsamples = 5\nvalue = [7, 0]\nclass = yes", fillcolor="#e58139"] ;
201 -> 217 ;
218 [label="education <= -0.81\ngini = 0.04\nsamples = 31\nvalue = [49, 1]\nclass = yes", fillcolor="#e6843d"] ;
2 -> 218 ;
219 [label="marital_married <= 0.5\ngini = 0.12\nsamples = 10\nvalue = [14, 1]\nclass = yes", fillcolor="#e78a47"] ;
218 -> 219 ;
220 [label="balance <= -0.31\ngini = 0.44\nsamples = 3\nvalue = [2, 1]\nclass = yes", fillcolor="#f2c09c"] ;
219 -> 220 ;
221 [label="gini = 0.0\nsamples = 2\nvalue = [2, 0]\nclass = yes", fillcolor="#e58139"] ;
220 -> 221 ;
222 [label="gini = 0.0\nsamples = 1\nvalue = [0, 1]\nclass = no", fillcolor="#399de5"] ;
220 -> 222 ;
223 [label="gini = 0.0\nsamples = 7\nvalue = [12, 0]\nclass = yes", fillcolor="#e58139"] ;
219 -> 223 ;
224 [label="gini = 0.0\nsamples = 21\nvalue = [35, 0]\nclass = yes", fillcolor="#e58139"] ;
218 -> 224 ;
225 [label="age <= -0.91\ngini = 0.37\nsamples = 3601\nvalue = [1409, 4284]\nclass = no", fillcolor="#7abdee"] ;
1 -> 225 ;
226 [label="duration <= -0.2\ngini = 0.22\nsamples = 1112\nvalue = [217, 1550]\nclass = no", fillcolor="#55abe9"] ;
225 -> 226 ;
227 [label="duration <= -0.2\ngini = 0.33\nsamples = 247\nvalue = [82, 312]\nclass = no", fillcolor="#6db7ec"] ;
226 -> 227 ;
228 [label="loan <= 0.5\ngini = 0.31\nsamples = 243\nvalue = [74, 311]\nclass = no", fillcolor="#68b4eb"] ;
227 -> 228 ;
229 [label="balance <= -0.45\ngini = 0.28\nsamples = 234\nvalue = [61, 309]\nclass = no", fillcolor="#60b0ea"] ;
228 -> 229 ;
230 [label="gini = 0.0\nsamples = 8\nvalue = [9, 0]\nclass = yes", fillcolor="#e58139"] ;
229 -> 230 ;
231 [label="contact_telephone <= 0.5\ngini = 0.25\nsamples = 226\nvalue = [52, 309]\nclass = no", fillcolor="#5aade9"] ;
229 -> 231 ;
232 [label="month <= 0.36\ngini = 0.23\nsamples = 221\nvalue = [46, 308]\nclass = no", fillcolor="#57ace9"] ;
231 -> 232 ;
233 [label="job_unemployed <= 0.5\ngini = 0.15\nsamples = 155\nvalue = [21, 239]\nclass = no", fillcolor="#4aa6e7"] ;
232 -> 233 ;
234 [label="age <= -1.78\ngini = 0.13\nsamples = 153\nvalue = [18, 239]\nclass = no", fillcolor="#48a4e7"] ;
233 -> 234 ;
235 [label="gini = 0.0\nsamples = 27\nvalue = [0, 47]\nclass = no", fillcolor="#399de5"] ;
234 -> 235 ;
236 [label="age <= -1.75\ngini = 0.16\nsamples = 126\nvalue = [18, 192]\nclass = no", fillcolor="#4ca6e7"] ;
234 -> 236 ;
237 [label="education <= 0.52\ngini = 0.44\nsamples = 3\nvalue = [2, 1]\nclass = yes", fillcolor="#f2c09c"] ;
236 -> 237 ;
238 [label="gini = 0.0\nsamples = 2\nvalue = [2, 0]\nclass = yes", fillcolor="#e58139"] ;
237 -> 238 ;
239 [label="gini = 0.0\nsamples = 1\nvalue = [0, 1]\nclass = no", fillcolor="#399de5"] ;
237 -> 239 ;
240 [label="month <= -2.05\ngini = 0.14\nsamples = 123\nvalue = [16, 191]\nclass = no", fillcolor="#4aa5e7"] ;
236 -> 240 ;
241 [label="age <= -1.44\ngini = 0.47\nsamples = 3\nvalue = [3, 5]\nclass = no", fillcolor="#b0d8f5"] ;
240 -> 241 ;
242 [label="gini = 0.0\nsamples = 2\nvalue = [0, 5]\nclass = no", fillcolor="#399de5"] ;
241 -> 242 ;
243 [label="gini = 0.0\nsamples = 1\nvalue = [3, 0]\nclass = yes", fillcolor="#e58139"] ;
241 -> 243 ;
244 [label="month <= -0.46\ngini = 0.12\nsamples = 120\nvalue = [13, 186]\nclass = no", fillcolor="#47a4e7"] ;
240 -> 244 ;
245 [label="job_technician <= 0.5\ngini = 0.09\nsamples = 91\nvalue = [7, 148]\nclass = no", fillcolor="#42a2e6"] ;
244 -> 245 ;
246 [label="marital_married <= 0.5\ngini = 0.1\nsamples = 76\nvalue = [7, 122]\nclass = no", fillcolor="#44a3e6"] ;
245 -> 246 ;
247 [label="duration <= -0.59\ngini = 0.06\nsamples = 70\nvalue = [4, 115]\nclass = no", fillcolor="#40a0e6"] ;
246 -> 247 ;
248 [label="balance <= 0.23\ngini = 0.14\nsamples = 15\nvalue = [2, 25]\nclass = no", fillcolor="#49a5e7"] ;
247 -> 248 ;
249 [label="gini = 0.0\nsamples = 12\nvalue = [0, 22]\nclass = no", fillcolor="#399de5"] ;
248 -> 249 ;
250 [label="campaign <= -0.18\ngini = 0.48\nsamples = 3\nvalue = [2, 3]\nclass = no", fillcolor="#bddef6"] ;
248 -> 250 ;
251 [label="gini = 0.0\nsamples = 2\nvalue = [0, 3]\nclass = no", fillcolor="#399de5"] ;
250 -> 251 ;
252 [label="gini = 0.0\nsamples = 1\nvalue = [2, 0]\nclass = yes", fillcolor="#e58139"] ;
250 -> 252 ;
253 [label="day <= -1.51\ngini = 0.04\nsamples = 55\nvalue = [2, 90]\nclass = no", fillcolor="#3d9fe6"] ;
247 -> 253 ;
254 [label="age <= -1.52\ngini = 0.35\nsamples = 7\nvalue = [2, 7]\nclass = no", fillcolor="#72b9ec"] ;
253 -> 254 ;
255 [label="previous <= 0.5\ngini = 0.22\nsamples = 6\nvalue = [1, 7]\nclass = no", fillcolor="#55abe9"] ;
254 -> 255 ;
256 [label="gini = 0.0\nsamples = 5\nvalue = [0, 7]\nclass = no", fillcolor="#399de5"] ;
255 -> 256 ;
257 [label="gini = 0.0\nsamples = 1\nvalue = [1, 0]\nclass = yes", fillcolor="#e58139"] ;
255 -> 257 ;
258 [label="gini = 0.0\nsamples = 1\nvalue = [1, 0]\nclass = yes", fillcolor="#e58139"] ;
254 -> 258 ;
259 [label="gini = 0.0\nsamples = 48\nvalue = [0, 83]\nclass = no", fillcolor="#399de5"] ;
253 -> 259 ;
260 [label="age <= -1.0\ngini = 0.42\nsamples = 6\nvalue = [3, 7]\nclass = no", fillcolor="#8ec7f0"] ;
246 -> 260 ;
261 [label="month <= -1.46\ngini = 0.38\nsamples = 4\nvalue = [3, 1]\nclass = yes", fillcolor="#eeab7b"] ;
260 -> 261 ;
262 [label="balance <= 0.0\ngini = 0.5\nsamples = 2\nvalue = [1, 1]\nclass = yes", fillcolor="#ffffff"] ;
261 -> 262 ;
263 [label="gini = 0.0\nsamples = 1\nvalue = [1, 0]\nclass = yes", fillcolor="#e58139"] ;
262 -> 263 ;
264 [label="gini = 0.0\nsamples = 1\nvalue = [0, 1]\nclass = no", fillcolor="#399de5"] ;
262 -> 264 ;
265 [label="gini = 0.0\nsamples = 2\nvalue = [2, 0]\nclass = yes", fillcolor="#e58139"] ;
261 -> 265 ;
266 [label="gini = 0.0\nsamples = 2\nvalue = [0, 6]\nclass = no", fillcolor="#399de5"] ;
260 -> 266 ;
267 [label="gini = 0.0\nsamples = 15\nvalue = [0, 26]\nclass = no", fillcolor="#399de5"] ;
245 -> 267 ;
268 [label="job_technician <= 0.5\ngini = 0.24\nsamples = 29\nvalue = [6, 38]\nclass = no", fillcolor="#58ace9"] ;
244 -> 268 ;
269 [label="job_management <= 0.5\ngini = 0.17\nsamples = 21\nvalue = [3, 30]\nclass = no", fillcolor="#4da7e8"] ;
268 -> 269 ;
270 [label="age <= -1.08\ngini = 0.09\nsamples = 15\nvalue = [1, 20]\nclass = no", fillcolor="#43a2e6"] ;
269 -> 270 ;
271 [label="gini = 0.0\nsamples = 14\nvalue = [0, 20]\nclass = no", fillcolor="#399de5"] ;
270 -> 271 ;
272 [label="gini = 0.0\nsamples = 1\nvalue = [1, 0]\nclass = yes", fillcolor="#e58139"] ;
270 -> 272 ;
273 [label="previous <= 0.5\ngini = 0.28\nsamples = 6\nvalue = [2, 10]\nclass = no", fillcolor="#61b1ea"] ;
269 -> 273 ;
274 [label="day <= -1.09\ngini = 0.44\nsamples = 3\nvalue = [2, 4]\nclass = no", fillcolor="#9ccef2"] ;
273 -> 274 ;
275 [label="gini = 0.0\nsamples = 2\nvalue = [0, 4]\nclass = no", fillcolor="#399de5"] ;
274 -> 275 ;
276 [label="gini = 0.0\nsamples = 1\nvalue = [2, 0]\nclass = yes", fillcolor="#e58139"] ;
274 -> 276 ;
277 [label="gini = 0.0\nsamples = 3\nvalue = [0, 6]\nclass = no", fillcolor="#399de5"] ;
273 -> 277 ;
278 [label="campaign <= 0.32\ngini = 0.4\nsamples = 8\nvalue = [3, 8]\nclass = no", fillcolor="#83c2ef"] ;
268 -> 278 ;
279 [label="duration <= -0.46\ngini = 0.48\nsamples = 5\nvalue = [3, 2]\nclass = yes", fillcolor="#f6d5bd"] ;
278 -> 279 ;
280 [label="previous <= 0.5\ngini = 0.44\nsamples = 3\nvalue = [1, 2]\nclass = no", fillcolor="#9ccef2"] ;
279 -> 280 ;
281 [label="duration <= -0.56\ngini = 0.5\nsamples = 2\nvalue = [1, 1]\nclass = yes", fillcolor="#ffffff"] ;
280 -> 281 ;
282 [label="gini = 0.0\nsamples = 1\nvalue = [0, 1]\nclass = no", fillcolor="#399de5"] ;
281 -> 282 ;
283 [label="gini = 0.0\nsamples = 1\nvalue = [1, 0]\nclass = yes", fillcolor="#e58139"] ;
281 -> 283 ;
284 [label="gini = 0.0\nsamples = 1\nvalue = [0, 1]\nclass = no", fillcolor="#399de5"] ;
280 -> 284 ;
285 [label="gini = 0.0\nsamples = 2\nvalue = [2, 0]\nclass = yes", fillcolor="#e58139"] ;
279 -> 285 ;
286 [label="gini = 0.0\nsamples = 3\nvalue = [0, 6]\nclass = no", fillcolor="#399de5"] ;
278 -> 286 ;
287 [label="gini = 0.0\nsamples = 2\nvalue = [3, 0]\nclass = yes", fillcolor="#e58139"] ;
233 -> 287 ;
288 [label="day <= -1.04\ngini = 0.39\nsamples = 66\nvalue = [25, 69]\nclass = no", fillcolor="#81c1ee"] ;
232 -> 288 ;
289 [label="education <= 0.28\ngini = 0.31\nsamples = 46\nvalue = [13, 55]\nclass = no", fillcolor="#68b4eb"] ;
288 -> 289 ;
290 [label="duration <= -0.33\ngini = 0.44\nsamples = 29\nvalue = [13, 27]\nclass = no", fillcolor="#98ccf2"] ;
289 -> 290 ;
291 [label="marital_single <= 0.5\ngini = 0.32\nsamples = 18\nvalue = [5, 20]\nclass = no", fillcolor="#6ab6ec"] ;
290 -> 291 ;
292 [label="gini = 0.0\nsamples = 3\nvalue = [0, 5]\nclass = no", fillcolor="#399de5"] ;
291 -> 292 ;
293 [label="age <= -1.42\ngini = 0.38\nsamples = 15\nvalue = [5, 15]\nclass = no", fillcolor="#7bbeee"] ;
291 -> 293 ;
294 [label="month <= 1.49\ngini = 0.5\nsamples = 8\nvalue = [5, 6]\nclass = no", fillcolor="#deeffb"] ;
293 -> 294 ;
295 [label="campaign <= -0.62\ngini = 0.38\nsamples = 6\nvalue = [2, 6]\nclass = no", fillcolor="#7bbeee"] ;
294 -> 295 ;
296 [label="age <= -1.81\ngini = 0.44\nsamples = 4\nvalue = [2, 4]\nclass = no", fillcolor="#9ccef2"] ;
295 -> 296 ;
297 [label="gini = 0.0\nsamples = 1\nvalue = [0, 1]\nclass = no", fillcolor="#399de5"] ;
296 -> 297 ;
298 [label="balance <= -0.34\ngini = 0.48\nsamples = 3\nvalue = [2, 3]\nclass = no", fillcolor="#bddef6"] ;
296 -> 298 ;
299 [label="gini = 0.0\nsamples = 1\nvalue = [2, 0]\nclass = yes", fillcolor="#e58139"] ;
298 -> 299 ;
300 [label="gini = 0.0\nsamples = 2\nvalue = [0, 3]\nclass = no", fillcolor="#399de5"] ;
298 -> 300 ;
301 [label="gini = 0.0\nsamples = 2\nvalue = [0, 2]\nclass = no", fillcolor="#399de5"] ;
295 -> 301 ;
302 [label="gini = 0.0\nsamples = 2\nvalue = [3, 0]\nclass = yes", fillcolor="#e58139"] ;
294 -> 302 ;
303 [label="gini = 0.0\nsamples = 7\nvalue = [0, 9]\nclass = no", fillcolor="#399de5"] ;
293 -> 303 ;
304 [label="job_services <= 0.5\ngini = 0.5\nsamples = 11\nvalue = [8, 7]\nclass = yes", fillcolor="#fcefe6"] ;
290 -> 304 ;
305 [label="age <= -1.29\ngini = 0.5\nsamples = 10\nvalue = [7, 7]\nclass = yes", fillcolor="#ffffff"] ;
304 -> 305 ;
306 [label="previous <= 0.5\ngini = 0.42\nsamples = 8\nvalue = [3, 7]\nclass = no", fillcolor="#8ec7f0"] ;
305 -> 306 ;
307 [label="month <= 0.91\ngini = 0.38\nsamples = 6\nvalue = [2, 6]\nclass = no", fillcolor="#7bbeee"] ;
306 -> 307 ;
308 [label="day <= -2.09\ngini = 0.5\nsamples = 2\nvalue = [1, 1]\nclass = yes", fillcolor="#ffffff"] ;
307 -> 308 ;
309 [label="gini = 0.0\nsamples = 1\nvalue = [0, 1]\nclass = no", fillcolor="#399de5"] ;
308 -> 309 ;
310 [label="gini = 0.0\nsamples = 1\nvalue = [1, 0]\nclass = yes", fillcolor="#e58139"] ;
308 -> 310 ;
311 [label="job_student <= 0.5\ngini = 0.28\nsamples = 4\nvalue = [1, 5]\nclass = no", fillcolor="#61b1ea"] ;
307 -> 311 ;
312 [label="gini = 0.0\nsamples = 1\nvalue = [0, 2]\nclass = no", fillcolor="#399de5"] ;
311 -> 312 ;
313 [label="duration <= -0.25\ngini = 0.38\nsamples = 3\nvalue = [1, 3]\nclass = no", fillcolor="#7bbeee"] ;
311 -> 313 ;
314 [label="gini = 0.0\nsamples = 1\nvalue = [1, 0]\nclass = yes", fillcolor="#e58139"] ;
313 -> 314 ;
315 [label="gini = 0.0\nsamples = 2\nvalue = [0, 3]\nclass = no", fillcolor="#399de5"] ;
313 -> 315 ;
316 [label="age <= -1.59\ngini = 0.5\nsamples = 2\nvalue = [1, 1]\nclass = yes", fillcolor="#ffffff"] ;
306 -> 316 ;
317 [label="gini = 0.0\nsamples = 1\nvalue = [1, 0]\nclass = yes", fillcolor="#e58139"] ;
316 -> 317 ;
318 [label="gini = 0.0\nsamples = 1\nvalue = [0, 1]\nclass = no", fillcolor="#399de5"] ;
316 -> 318 ;
319 [label="gini = 0.0\nsamples = 2\nvalue = [4, 0]\nclass = yes", fillcolor="#e58139"] ;
305 -> 319 ;
320 [label="gini = 0.0\nsamples = 1\nvalue = [1, 0]\nclass = yes", fillcolor="#e58139"] ;
304 -> 320 ;
321 [label="gini = 0.0\nsamples = 17\nvalue = [0, 28]\nclass = no", fillcolor="#399de5"] ;
289 -> 321 ;
322 [label="marital_married <= 0.5\ngini = 0.5\nsamples = 20\nvalue = [12, 14]\nclass = no", fillcolor="#e3f1fb"] ;
288 -> 322 ;
323 [label="day <= -1.03\ngini = 0.47\nsamples = 16\nvalue = [8, 13]\nclass = no", fillcolor="#b3d9f5"] ;
322 -> 323 ;
324 [label="balance <= -0.36\ngini = 0.2\nsamples = 8\nvalue = [8, 1]\nclass = yes", fillcolor="#e89152"] ;
323 -> 324 ;
325 [label="job_self-employed <= 0.5\ngini = 0.38\nsamples = 4\nvalue = [3, 1]\nclass = yes", fillcolor="#eeab7b"] ;
324 -> 325 ;
326 [label="previous <= 0.5\ngini = 0.44\nsamples = 3\nvalue = [2, 1]\nclass = yes", fillcolor="#f2c09c"] ;
325 -> 326 ;
327 [label="gini = 0.0\nsamples = 2\nvalue = [2, 0]\nclass = yes", fillcolor="#e58139"] ;
326 -> 327 ;
328 [label="gini = 0.0\nsamples = 1\nvalue = [0, 1]\nclass = no", fillcolor="#399de5"] ;
326 -> 328 ;
329 [label="gini = 0.0\nsamples = 1\nvalue = [1, 0]\nclass = yes", fillcolor="#e58139"] ;
325 -> 329 ;
330 [label="gini = 0.0\nsamples = 4\nvalue = [5, 0]\nclass = yes", fillcolor="#e58139"] ;
324 -> 330 ;
331 [label="gini = 0.0\nsamples = 8\nvalue = [0, 12]\nclass = no", fillcolor="#399de5"] ;
323 -> 331 ;
332 [label="day <= -1.03\ngini = 0.32\nsamples = 4\nvalue = [4, 1]\nclass = yes", fillcolor="#eca06a"] ;
322 -> 332 ;
333 [label="gini = 0.0\nsamples = 3\nvalue = [4, 0]\nclass = yes", fillcolor="#e58139"] ;
332 -> 333 ;
334 [label="gini = 0.0\nsamples = 1\nvalue = [0, 1]\nclass = no", fillcolor="#399de5"] ;
332 -> 334 ;
335 [label="education <= -1.04\ngini = 0.24\nsamples = 5\nvalue = [6, 1]\nclass = yes", fillcolor="#e9965a"] ;
231 -> 335 ;
336 [label="gini = 0.0\nsamples = 1\nvalue = [2, 0]\nclass = yes", fillcolor="#e58139"] ;
335 -> 336 ;
337 [label="job_entrepreneur <= 0.5\ngini = 0.32\nsamples = 4\nvalue = [4, 1]\nclass = yes", fillcolor="#eca06a"] ;
335 -> 337 ;
338 [label="gini = 0.0\nsamples = 3\nvalue = [4, 0]\nclass = yes", fillcolor="#e58139"] ;
337 -> 338 ;
339 [label="gini = 0.0\nsamples = 1\nvalue = [0, 1]\nclass = no", fillcolor="#399de5"] ;
337 -> 339 ;
340 [label="month <= 0.98\ngini = 0.23\nsamples = 9\nvalue = [13, 2]\nclass = yes", fillcolor="#e99457"] ;
228 -> 340 ;
341 [label="age <= -1.3\ngini = 0.13\nsamples = 8\nvalue = [13, 1]\nclass = yes", fillcolor="#e78b48"] ;
340 -> 341 ;
342 [label="day <= -1.42\ngini = 0.38\nsamples = 3\nvalue = [3, 1]\nclass = yes", fillcolor="#eeab7b"] ;
341 -> 342 ;
343 [label="gini = 0.0\nsamples = 2\nvalue = [3, 0]\nclass = yes", fillcolor="#e58139"] ;
342 -> 343 ;
344 [label="gini = 0.0\nsamples = 1\nvalue = [0, 1]\nclass = no", fillcolor="#399de5"] ;
342 -> 344 ;
345 [label="gini = 0.0\nsamples = 5\nvalue = [10, 0]\nclass = yes", fillcolor="#e58139"] ;
341 -> 345 ;
346 [label="gini = 0.0\nsamples = 1\nvalue = [0, 1]\nclass = no", fillcolor="#399de5"] ;
340 -> 346 ;
347 [label="job_services <= 0.5\ngini = 0.2\nsamples = 4\nvalue = [8, 1]\nclass = yes", fillcolor="#e89152"] ;
227 -> 347 ;
348 [label="gini = 0.0\nsamples = 3\nvalue = [8, 0]\nclass = yes", fillcolor="#e58139"] ;
347 -> 348 ;
349 [label="gini = 0.0\nsamples = 1\nvalue = [0, 1]\nclass = no", fillcolor="#399de5"] ;
347 -> 349 ;
350 [label="marital_married <= 0.5\ngini = 0.18\nsamples = 865\nvalue = [135, 1238]\nclass = no", fillcolor="#4fa8e8"] ;
226 -> 350 ;
351 [label="loan <= 0.5\ngini = 0.14\nsamples = 784\nvalue = [96, 1144]\nclass = no", fillcolor="#4aa5e7"] ;
350 -> 351 ;
352 [label="contact_telephone <= 0.5\ngini = 0.13\nsamples = 769\nvalue = [85, 1129]\nclass = no", fillcolor="#48a4e7"] ;
351 -> 352 ;
353 [label="marital_single <= 0.5\ngini = 0.12\nsamples = 751\nvalue = [78, 1107]\nclass = no", fillcolor="#47a4e7"] ;
352 -> 353 ;
354 [label="gini = 0.0\nsamples = 25\nvalue = [0, 39]\nclass = no", fillcolor="#399de5"] ;
353 -> 354 ;
355 [label="job_blue-collar <= 0.5\ngini = 0.13\nsamples = 726\nvalue = [78, 1068]\nclass = no", fillcolor="#47a4e7"] ;
353 -> 355 ;
356 [label="job_services <= 0.5\ngini = 0.12\nsamples = 692\nvalue = [72, 1025]\nclass = no", fillcolor="#47a4e7"] ;
355 -> 356 ;
357 [label="duration <= 0.88\ngini = 0.11\nsamples = 657\nvalue = [62, 976]\nclass = no", fillcolor="#46a3e7"] ;
356 -> 357 ;
358 [label="duration <= 0.88\ngini = 0.15\nsamples = 374\nvalue = [49, 546]\nclass = no", fillcolor="#4ba6e7"] ;
357 -> 358 ;
359 [label="month <= -2.04\ngini = 0.14\nsamples = 372\nvalue = [45, 546]\nclass = no", fillcolor="#49a5e7"] ;
358 -> 359 ;
360 [label="balance <= -0.12\ngini = 0.5\nsamples = 12\nvalue = [9, 11]\nclass = no", fillcolor="#dbedfa"] ;
359 -> 360 ;
361 [label="day <= -1.81\ngini = 0.43\nsamples = 7\nvalue = [9, 4]\nclass = yes", fillcolor="#f1b991"] ;
360 -> 361 ;
362 [label="gini = 0.0\nsamples = 3\nvalue = [0, 4]\nclass = no", fillcolor="#399de5"] ;
361 -> 362 ;
363 [label="gini = 0.0\nsamples = 4\nvalue = [9, 0]\nclass = yes", fillcolor="#e58139"] ;
361 -> 363 ;
364 [label="gini = 0.0\nsamples = 5\nvalue = [0, 7]\nclass = no", fillcolor="#399de5"] ;
360 -> 364 ;
365 [label="job_admin. <= 0.5\ngini = 0.12\nsamples = 360\nvalue = [36, 535]\nclass = no", fillcolor="#46a4e7"] ;
359 -> 365 ;
366 [label="job_management <= 0.5\ngini = 0.11\nsamples = 341\nvalue = [31, 510]\nclass = no", fillcolor="#45a3e7"] ;
365 -> 366 ;
367 [label="job_technician <= 0.5\ngini = 0.1\nsamples = 268\nvalue = [22, 409]\nclass = no", fillcolor="#44a2e6"] ;
366 -> 367 ;
368 [label="job_self-employed <= 0.5\ngini = 0.09\nsamples = 216\nvalue = [17, 334]\nclass = no", fillcolor="#43a2e6"] ;
367 -> 368 ;
369 [label="job_student <= 0.5\ngini = 0.08\nsamples = 205\nvalue = [13, 313]\nclass = no", fillcolor="#41a1e6"] ;
368 -> 369 ;
370 [label="month <= 1.89\ngini = 0.02\nsamples = 77\nvalue = [1, 115]\nclass = no", fillcolor="#3b9ee5"] ;
369 -> 370 ;
371 [label="gini = 0.0\nsamples = 71\nvalue = [0, 110]\nclass = no", fillcolor="#399de5"] ;
370 -> 371 ;
372 [label="education <= 0.52\ngini = 0.28\nsamples = 6\nvalue = [1, 5]\nclass = no", fillcolor="#61b1ea"] ;
370 -> 372 ;
373 [label="gini = 0.0\nsamples = 4\nvalue = [0, 4]\nclass = no", fillcolor="#399de5"] ;
372 -> 373 ;
374 [label="duration <= 0.39\ngini = 0.5\nsamples = 2\nvalue = [1, 1]\nclass = yes", fillcolor="#ffffff"] ;
372 -> 374 ;
375 [label="gini = 0.0\nsamples = 1\nvalue = [0, 1]\nclass = no", fillcolor="#399de5"] ;
374 -> 375 ;
376 [label="gini = 0.0\nsamples = 1\nvalue = [1, 0]\nclass = yes", fillcolor="#e58139"] ;
374 -> 376 ;
377 [label="age <= -1.14\ngini = 0.11\nsamples = 128\nvalue = [12, 198]\nclass = no", fillcolor="#45a3e7"] ;
369 -> 377 ;
378 [label="age <= -1.39\ngini = 0.12\nsamples = 114\nvalue = [12, 177]\nclass = no", fillcolor="#46a4e7"] ;
377 -> 378 ;
379 [label="balance <= -0.4\ngini = 0.1\nsamples = 99\nvalue = [9, 156]\nclass = no", fillcolor="#44a3e6"] ;
378 -> 379 ;
380 [label="month <= 1.18\ngini = 0.25\nsamples = 18\nvalue = [5, 29]\nclass = no", fillcolor="#5baee9"] ;
379 -> 380 ;
381 [label="gini = 0.0\nsamples = 12\nvalue = [0, 25]\nclass = no", fillcolor="#399de5"] ;
380 -> 381 ;
382 [label="campaign <= -0.38\ngini = 0.49\nsamples = 6\nvalue = [5, 4]\nclass = yes", fillcolor="#fae6d7"] ;
380 -> 382 ;
383 [label="previous <= 0.5\ngini = 0.49\nsamples = 5\nvalue = [3, 4]\nclass = no", fillcolor="#cee6f8"] ;
382 -> 383 ;
384 [label="gini = 0.0\nsamples = 1\nvalue = [3, 0]\nclass = yes", fillcolor="#e58139"] ;
383 -> 384 ;
385 [label="gini = 0.0\nsamples = 4\nvalue = [0, 4]\nclass = no", fillcolor="#399de5"] ;
383 -> 385 ;
386 [label="gini = 0.0\nsamples = 1\nvalue = [2, 0]\nclass = yes", fillcolor="#e58139"] ;
382 -> 386 ;
387 [label="balance <= -0.21\ngini = 0.06\nsamples = 81\nvalue = [4, 127]\nclass = no", fillcolor="#3fa0e6"] ;
379 -> 387 ;
388 [label="gini = 0.0\nsamples = 52\nvalue = [0, 88]\nclass = no", fillcolor="#399de5"] ;
387 -> 388 ;
389 [label="balance <= -0.2\ngini = 0.17\nsamples = 29\nvalue = [4, 39]\nclass = no", fillcolor="#4da7e8"] ;
387 -> 389 ;
390 [label="gini = 0.0\nsamples = 1\nvalue = [1, 0]\nclass = yes", fillcolor="#e58139"] ;
389 -> 390 ;
391 [label="day <= -1.79\ngini = 0.13\nsamples = 28\nvalue = [3, 39]\nclass = no", fillcolor="#48a5e7"] ;
389 -> 391 ;
392 [label="day <= -1.89\ngini = 0.24\nsamples = 14\nvalue = [3, 18]\nclass = no", fillcolor="#5aade9"] ;
391 -> 392 ;
393 [label="balance <= 0.2\ngini = 0.1\nsamples = 13\nvalue = [1, 18]\nclass = no", fillcolor="#44a2e6"] ;
392 -> 393 ;
394 [label="gini = 0.0\nsamples = 9\nvalue = [0, 14]\nclass = no", fillcolor="#399de5"] ;
393 -> 394 ;
395 [label="campaign <= -0.76\ngini = 0.32\nsamples = 4\nvalue = [1, 4]\nclass = no", fillcolor="#6ab6ec"] ;
393 -> 395 ;
396 [label="day <= -2.04\ngini = 0.5\nsamples = 2\nvalue = [1, 1]\nclass = yes", fillcolor="#ffffff"] ;
395 -> 396 ;
397 [label="gini = 0.0\nsamples = 1\nvalue = [0, 1]\nclass = no", fillcolor="#399de5"] ;
396 -> 397 ;
398 [label="gini = 0.0\nsamples = 1\nvalue = [1, 0]\nclass = yes", fillcolor="#e58139"] ;
396 -> 398 ;
399 [label="gini = 0.0\nsamples = 2\nvalue = [0, 3]\nclass = no", fillcolor="#399de5"] ;
395 -> 399 ;
400 [label="gini = 0.0\nsamples = 1\nvalue = [2, 0]\nclass = yes", fillcolor="#e58139"] ;
392 -> 400 ;
401 [label="gini = 0.0\nsamples = 14\nvalue = [0, 21]\nclass = no", fillcolor="#399de5"] ;
391 -> 401 ;
402 [label="education <= 0.52\ngini = 0.22\nsamples = 15\nvalue = [3, 21]\nclass = no", fillcolor="#55abe9"] ;
378 -> 402 ;
403 [label="age <= -1.38\ngini = 0.24\nsamples = 14\nvalue = [3, 19]\nclass = no", fillcolor="#58ace9"] ;
402 -> 403 ;
404 [label="gini = 0.0\nsamples = 2\nvalue = [2, 0]\nclass = yes", fillcolor="#e58139"] ;
403 -> 404 ;
405 [label="balance <= -0.07\ngini = 0.09\nsamples = 12\nvalue = [1, 19]\nclass = no", fillcolor="#43a2e6"] ;
403 -> 405 ;
406 [label="day <= -1.17\ngini = 0.2\nsamples = 7\nvalue = [1, 8]\nclass = no", fillcolor="#52a9e8"] ;
405 -> 406 ;
407 [label="gini = 0.0\nsamples = 4\nvalue = [0, 4]\nclass = no", fillcolor="#399de5"] ;
406 -> 407 ;
408 [label="previous <= 0.5\ngini = 0.32\nsamples = 3\nvalue = [1, 4]\nclass = no", fillcolor="#6ab6ec"] ;
406 -> 408 ;
409 [label="gini = 0.0\nsamples = 1\nvalue = [1, 0]\nclass = yes", fillcolor="#e58139"] ;
408 -> 409 ;
410 [label="gini = 0.0\nsamples = 2\nvalue = [0, 4]\nclass = no", fillcolor="#399de5"] ;
408 -> 410 ;
411 [label="gini = 0.0\nsamples = 5\nvalue = [0, 11]\nclass = no", fillcolor="#399de5"] ;
405 -> 411 ;
412 [label="gini = 0.0\nsamples = 1\nvalue = [0, 2]\nclass = no", fillcolor="#399de5"] ;
402 -> 412 ;
413 [label="gini = 0.0\nsamples = 14\nvalue = [0, 21]\nclass = no", fillcolor="#399de5"] ;
377 -> 413 ;
414 [label="previous <= 0.5\ngini = 0.27\nsamples = 11\nvalue = [4, 21]\nclass = no", fillcolor="#5fb0ea"] ;
368 -> 414 ;
415 [label="month <= -0.24\ngini = 0.36\nsamples = 6\nvalue = [4, 13]\nclass = no", fillcolor="#76bbed"] ;
414 -> 415 ;
416 [label="gini = 0.0\nsamples = 1\nvalue = [4, 0]\nclass = yes", fillcolor="#e58139"] ;
415 -> 416 ;
417 [label="gini = 0.0\nsamples = 5\nvalue = [0, 13]\nclass = no", fillcolor="#399de5"] ;
415 -> 417 ;
418 [label="gini = 0.0\nsamples = 5\nvalue = [0, 8]\nclass = no", fillcolor="#399de5"] ;
414 -> 418 ;
419 [label="contact_cellular <= 0.5\ngini = 0.12\nsamples = 52\nvalue = [5, 75]\nclass = no", fillcolor="#46a4e7"] ;
367 -> 419 ;
420 [label="gini = 0.0\nsamples = 1\nvalue = [0, 1]\nclass = no", fillcolor="#399de5"] ;
419 -> 420 ;
421 [label="age <= -1.27\ngini = 0.12\nsamples = 51\nvalue = [5, 74]\nclass = no", fillcolor="#46a4e7"] ;
419 -> 421 ;
422 [label="gini = 0.0\nsamples = 28\nvalue = [0, 44]\nclass = no", fillcolor="#399de5"] ;
421 -> 422 ;
423 [label="age <= -1.23\ngini = 0.24\nsamples = 23\nvalue = [5, 30]\nclass = no", fillcolor="#5aade9"] ;
421 -> 423 ;
424 [label="gini = 0.0\nsamples = 2\nvalue = [3, 0]\nclass = yes", fillcolor="#e58139"] ;
423 -> 424 ;
425 [label="campaign <= 1.0\ngini = 0.12\nsamples = 21\nvalue = [2, 30]\nclass = no", fillcolor="#46a4e7"] ;
423 -> 425 ;
426 [label="gini = 0.0\nsamples = 20\nvalue = [0, 30]\nclass = no", fillcolor="#399de5"] ;
425 -> 426 ;
427 [label="gini = 0.0\nsamples = 1\nvalue = [2, 0]\nclass = yes", fillcolor="#e58139"] ;
425 -> 427 ;
428 [label="campaign <= 0.12\ngini = 0.15\nsamples = 73\nvalue = [9, 101]\nclass = no", fillcolor="#4ba6e7"] ;
366 -> 428 ;
429 [label="previous <= 0.5\ngini = 0.08\nsamples = 49\nvalue = [3, 71]\nclass = no", fillcolor="#41a1e6"] ;
428 -> 429 ;
430 [label="campaign <= -0.82\ngini = 0.06\nsamples = 23\nvalue = [1, 33]\nclass = no", fillcolor="#3fa0e6"] ;
429 -> 430 ;
431 [label="balance <= 0.01\ngini = 0.08\nsamples = 18\nvalue = [1, 24]\nclass = no", fillcolor="#41a1e6"] ;
430 -> 431 ;
432 [label="gini = 0.0\nsamples = 12\nvalue = [0, 18]\nclass = no", fillcolor="#399de5"] ;
431 -> 432 ;
433 [label="age <= -1.1\ngini = 0.24\nsamples = 6\nvalue = [1, 6]\nclass = no", fillcolor="#5aade9"] ;
431 -> 433 ;
434 [label="gini = 0.0\nsamples = 3\nvalue = [0, 4]\nclass = no", fillcolor="#399de5"] ;
433 -> 434 ;
435 [label="day <= -0.99\ngini = 0.44\nsamples = 3\nvalue = [1, 2]\nclass = no", fillcolor="#9ccef2"] ;
433 -> 435 ;
436 [label="gini = 0.0\nsamples = 1\nvalue = [1, 0]\nclass = yes", fillcolor="#e58139"] ;
435 -> 436 ;
437 [label="gini = 0.0\nsamples = 2\nvalue = [0, 2]\nclass = no", fillcolor="#399de5"] ;
435 -> 437 ;
438 [label="gini = 0.0\nsamples = 5\nvalue = [0, 9]\nclass = no", fillcolor="#399de5"] ;
430 -> 438 ;
439 [label="month <= -0.59\ngini = 0.09\nsamples = 26\nvalue = [2, 38]\nclass = no", fillcolor="#43a2e6"] ;
429 -> 439 ;
440 [label="day <= -1.52\ngini = 0.44\nsamples = 3\nvalue = [1, 2]\nclass = no", fillcolor="#9ccef2"] ;
439 -> 440 ;
441 [label="gini = 0.0\nsamples = 1\nvalue = [1, 0]\nclass = yes", fillcolor="#e58139"] ;
440 -> 441 ;
442 [label="gini = 0.0\nsamples = 2\nvalue = [0, 2]\nclass = no", fillcolor="#399de5"] ;
440 -> 442 ;
443 [label="age <= -1.17\ngini = 0.05\nsamples = 23\nvalue = [1, 36]\nclass = no", fillcolor="#3ea0e6"] ;
439 -> 443 ;
444 [label="gini = 0.0\nsamples = 16\nvalue = [0, 26]\nclass = no", fillcolor="#399de5"] ;
443 -> 444 ;
445 [label="duration <= 0.21\ngini = 0.17\nsamples = 7\nvalue = [1, 10]\nclass = no", fillcolor="#4da7e8"] ;
443 -> 445 ;
446 [label="day <= -1.12\ngini = 0.5\nsamples = 2\nvalue = [1, 1]\nclass = yes", fillcolor="#ffffff"] ;
445 -> 446 ;
447 [label="gini = 0.0\nsamples = 1\nvalue = [1, 0]\nclass = yes", fillcolor="#e58139"] ;
446 -> 447 ;
448 [label="gini = 0.0\nsamples = 1\nvalue = [0, 1]\nclass = no", fillcolor="#399de5"] ;
446 -> 448 ;
449 [label="gini = 0.0\nsamples = 5\nvalue = [0, 9]\nclass = no", fillcolor="#399de5"] ;
445 -> 449 ;
450 [label="education <= 0.52\ngini = 0.28\nsamples = 24\nvalue = [6, 30]\nclass = no", fillcolor="#61b1ea"] ;
428 -> 450 ;
451 [label="gini = 0.0\nsamples = 1\nvalue = [1, 0]\nclass = yes", fillcolor="#e58139"] ;
450 -> 451 ;
452 [label="balance <= -0.12\ngini = 0.24\nsamples = 23\nvalue = [5, 30]\nclass = no", fillcolor="#5aade9"] ;
450 -> 452 ;
453 [label="gini = 0.0\nsamples = 13\nvalue = [0, 23]\nclass = no", fillcolor="#399de5"] ;
452 -> 453 ;
454 [label="day <= -1.09\ngini = 0.49\nsamples = 10\nvalue = [5, 7]\nclass = no", fillcolor="#c6e3f8"] ;
452 -> 454 ;
455 [label="day <= -1.45\ngini = 0.35\nsamples = 7\nvalue = [2, 7]\nclass = no", fillcolor="#72b9ec"] ;
454 -> 455 ;
456 [label="duration <= 0.17\ngini = 0.44\nsamples = 2\nvalue = [2, 1]\nclass = yes", fillcolor="#f2c09c"] ;
455 -> 456 ;
457 [label="gini = 0.0\nsamples = 1\nvalue = [0, 1]\nclass = no", fillcolor="#399de5"] ;
456 -> 457 ;
458 [label="gini = 0.0\nsamples = 1\nvalue = [2, 0]\nclass = yes", fillcolor="#e58139"] ;
456 -> 458 ;
459 [label="gini = 0.0\nsamples = 5\nvalue = [0, 6]\nclass = no", fillcolor="#399de5"] ;
455 -> 459 ;
460 [label="gini = 0.0\nsamples = 3\nvalue = [3, 0]\nclass = yes", fillcolor="#e58139"] ;
454 -> 460 ;
461 [label="month <= 1.58\ngini = 0.28\nsamples = 19\nvalue = [5, 25]\nclass = no", fillcolor="#61b1ea"] ;
365 -> 461 ;
462 [label="previous <= 0.5\ngini = 0.19\nsamples = 18\nvalue = [3, 25]\nclass = no", fillcolor="#51a9e8"] ;
461 -> 462 ;
463 [label="month <= -0.58\ngini = 0.22\nsamples = 10\nvalue = [2, 14]\nclass = no", fillcolor="#55abe9"] ;
462 -> 463 ;
464 [label="duration <= 0.11\ngini = 0.5\nsamples = 4\nvalue = [2, 2]\nclass = yes", fillcolor="#ffffff"] ;
463 -> 464 ;
465 [label="gini = 0.0\nsamples = 1\nvalue = [1, 0]\nclass = yes", fillcolor="#e58139"] ;
464 -> 465 ;
466 [label="balance <= -0.39\ngini = 0.44\nsamples = 3\nvalue = [1, 2]\nclass = no", fillcolor="#9ccef2"] ;
464 -> 466 ;
467 [label="gini = 0.0\nsamples = 1\nvalue = [1, 0]\nclass = yes", fillcolor="#e58139"] ;
466 -> 467 ;
468 [label="gini = 0.0\nsamples = 2\nvalue = [0, 2]\nclass = no", fillcolor="#399de5"] ;
466 -> 468 ;
469 [label="gini = 0.0\nsamples = 6\nvalue = [0, 12]\nclass = no", fillcolor="#399de5"] ;
463 -> 469 ;
470 [label="age <= -1.22\ngini = 0.15\nsamples = 8\nvalue = [1, 11]\nclass = no", fillcolor="#4ba6e7"] ;
462 -> 470 ;
471 [label="gini = 0.0\nsamples = 7\nvalue = [0, 11]\nclass = no", fillcolor="#399de5"] ;
470 -> 471 ;
472 [label="gini = 0.0\nsamples = 1\nvalue = [1, 0]\nclass = yes", fillcolor="#e58139"] ;
470 -> 472 ;
473 [label="gini = 0.0\nsamples = 1\nvalue = [2, 0]\nclass = yes", fillcolor="#e58139"] ;
461 -> 473 ;
474 [label="gini = 0.0\nsamples = 2\nvalue = [4, 0]\nclass = yes", fillcolor="#e58139"] ;
358 -> 474 ;
475 [label="job_technician <= 0.5\ngini = 0.06\nsamples = 283\nvalue = [13, 430]\nclass = no", fillcolor="#3fa0e6"] ;
357 -> 475 ;
476 [label="day <= -1.03\ngini = 0.05\nsamples = 250\nvalue = [9, 378]\nclass = no", fillcolor="#3e9fe6"] ;
475 -> 476 ;
477 [label="campaign <= -0.89\ngini = 0.02\nsamples = 222\nvalue = [4, 340]\nclass = no", fillcolor="#3b9ee5"] ;
476 -> 477 ;
478 [label="month <= -1.49\ngini = 0.05\nsamples = 109\nvalue = [4, 167]\nclass = no", fillcolor="#3e9fe6"] ;
477 -> 478 ;
479 [label="job_student <= 0.5\ngini = 0.48\nsamples = 5\nvalue = [2, 3]\nclass = no", fillcolor="#bddef6"] ;
478 -> 479 ;
480 [label="gini = 0.0\nsamples = 2\nvalue = [0, 2]\nclass = no", fillcolor="#399de5"] ;
479 -> 480 ;
481 [label="day <= -1.71\ngini = 0.44\nsamples = 3\nvalue = [2, 1]\nclass = yes", fillcolor="#f2c09c"] ;
479 -> 481 ;
482 [label="gini = 0.0\nsamples = 1\nvalue = [0, 1]\nclass = no", fillcolor="#399de5"] ;
481 -> 482 ;
483 [label="gini = 0.0\nsamples = 2\nvalue = [2, 0]\nclass = yes", fillcolor="#e58139"] ;
481 -> 483 ;
484 [label="job_student <= 0.5\ngini = 0.02\nsamples = 104\nvalue = [2, 164]\nclass = no", fillcolor="#3b9ee5"] ;
478 -> 484 ;
485 [label="month <= 0.23\ngini = 0.02\nsamples = 63\nvalue = [1, 94]\nclass = no", fillcolor="#3b9ee5"] ;
484 -> 485 ;
486 [label="gini = 0.0\nsamples = 47\nvalue = [0, 72]\nclass = no", fillcolor="#399de5"] ;
485 -> 486 ;
487 [label="job_management <= 0.5\ngini = 0.08\nsamples = 16\nvalue = [1, 22]\nclass = no", fillcolor="#42a1e6"] ;
485 -> 487 ;
488 [label="gini = 0.0\nsamples = 14\nvalue = [0, 20]\nclass = no", fillcolor="#399de5"] ;
487 -> 488 ;
489 [label="balance <= -0.31\ngini = 0.44\nsamples = 2\nvalue = [1, 2]\nclass = no", fillcolor="#9ccef2"] ;
487 -> 489 ;
490 [label="gini = 0.0\nsamples = 1\nvalue = [1, 0]\nclass = yes", fillcolor="#e58139"] ;
489 -> 490 ;
491 [label="gini = 0.0\nsamples = 1\nvalue = [0, 2]\nclass = no", fillcolor="#399de5"] ;
489 -> 491 ;
492 [label="month <= 1.96\ngini = 0.03\nsamples = 41\nvalue = [1, 70]\nclass = no", fillcolor="#3c9ee5"] ;
484 -> 492 ;
493 [label="gini = 0.0\nsamples = 35\nvalue = [0, 60]\nclass = no", fillcolor="#399de5"] ;
492 -> 493 ;
494 [label="age <= -2.09\ngini = 0.17\nsamples = 6\nvalue = [1, 10]\nclass = no", fillcolor="#4da7e8"] ;
492 -> 494 ;
495 [label="gini = 0.0\nsamples = 3\nvalue = [0, 7]\nclass = no", fillcolor="#399de5"] ;
494 -> 495 ;
496 [label="age <= -1.87\ngini = 0.38\nsamples = 3\nvalue = [1, 3]\nclass = no", fillcolor="#7bbeee"] ;
494 -> 496 ;
497 [label="gini = 0.0\nsamples = 1\nvalue = [1, 0]\nclass = yes", fillcolor="#e58139"] ;
496 -> 497 ;
498 [label="gini = 0.0\nsamples = 2\nvalue = [0, 3]\nclass = no", fillcolor="#399de5"] ;
496 -> 498 ;
499 [label="gini = 0.0\nsamples = 113\nvalue = [0, 173]\nclass = no", fillcolor="#399de5"] ;
477 -> 499 ;
500 [label="balance <= 4.31\ngini = 0.21\nsamples = 28\nvalue = [5, 38]\nclass = no", fillcolor="#53aae8"] ;
476 -> 500 ;
501 [label="job_self-employed <= 0.5\ngini = 0.14\nsamples = 27\nvalue = [3, 38]\nclass = no", fillcolor="#49a5e7"] ;
500 -> 501 ;
502 [label="duration <= 1.76\ngini = 0.09\nsamples = 26\nvalue = [2, 38]\nclass = no", fillcolor="#43a2e6"] ;
501 -> 502 ;
503 [label="gini = 0.0\nsamples = 19\nvalue = [0, 32]\nclass = no", fillcolor="#399de5"] ;
502 -> 503 ;
504 [label="month <= -0.51\ngini = 0.38\nsamples = 7\nvalue = [2, 6]\nclass = no", fillcolor="#7bbeee"] ;
502 -> 504 ;
505 [label="gini = 0.0\nsamples = 3\nvalue = [0, 3]\nclass = no", fillcolor="#399de5"] ;
504 -> 505 ;
506 [label="age <= -1.02\ngini = 0.48\nsamples = 4\nvalue = [2, 3]\nclass = no", fillcolor="#bddef6"] ;
504 -> 506 ;
507 [label="gini = 0.0\nsamples = 2\nvalue = [2, 0]\nclass = yes", fillcolor="#e58139"] ;
506 -> 507 ;
508 [label="gini = 0.0\nsamples = 2\nvalue = [0, 3]\nclass = no", fillcolor="#399de5"] ;
506 -> 508 ;
509 [label="gini = 0.0\nsamples = 1\nvalue = [1, 0]\nclass = yes", fillcolor="#e58139"] ;
501 -> 509 ;
510 [label="gini = 0.0\nsamples = 1\nvalue = [2, 0]\nclass = yes", fillcolor="#e58139"] ;
500 -> 510 ;
511 [label="duration <= 2.07\ngini = 0.13\nsamples = 33\nvalue = [4, 52]\nclass = no", fillcolor="#48a5e7"] ;
475 -> 511 ;
512 [label="previous <= 0.5\ngini = 0.08\nsamples = 30\nvalue = [2, 49]\nclass = no", fillcolor="#41a1e6"] ;
511 -> 512 ;
513 [label="balance <= 3.42\ngini = 0.08\nsamples = 29\nvalue = [2, 48]\nclass = no", fillcolor="#41a1e6"] ;
512 -> 513 ;
514 [label="gini = 0.0\nsamples = 28\nvalue = [0, 48]\nclass = no", fillcolor="#399de5"] ;
513 -> 514 ;
515 [label="gini = 0.0\nsamples = 1\nvalue = [2, 0]\nclass = yes", fillcolor="#e58139"] ;
513 -> 515 ;
516 [label="gini = 0.0\nsamples = 1\nvalue = [0, 1]\nclass = no", fillcolor="#399de5"] ;
512 -> 516 ;
517 [label="month <= -1.66\ngini = 0.48\nsamples = 3\nvalue = [2, 3]\nclass = no", fillcolor="#bddef6"] ;
511 -> 517 ;
518 [label="gini = 0.0\nsamples = 1\nvalue = [2, 0]\nclass = yes", fillcolor="#e58139"] ;
517 -> 518 ;
519 [label="gini = 0.0\nsamples = 2\nvalue = [0, 3]\nclass = no", fillcolor="#399de5"] ;
517 -> 519 ;
520 [label="campaign <= -0.81\ngini = 0.28\nsamples = 35\nvalue = [10, 49]\nclass = no", fillcolor="#61b1ea"] ;
356 -> 520 ;
521 [label="month <= -1.63\ngini = 0.42\nsamples = 21\nvalue = [10, 24]\nclass = no", fillcolor="#8bc6f0"] ;
520 -> 521 ;
522 [label="duration <= 1.63\ngini = 0.32\nsamples = 2\nvalue = [4, 1]\nclass = yes", fillcolor="#eca06a"] ;
521 -> 522 ;
523 [label="gini = 0.0\nsamples = 1\nvalue = [4, 0]\nclass = yes", fillcolor="#e58139"] ;
522 -> 523 ;
524 [label="gini = 0.0\nsamples = 1\nvalue = [0, 1]\nclass = no", fillcolor="#399de5"] ;
522 -> 524 ;
525 [label="age <= -1.38\ngini = 0.33\nsamples = 19\nvalue = [6, 23]\nclass = no", fillcolor="#6db7ec"] ;
521 -> 525 ;
526 [label="duration <= 0.82\ngini = 0.49\nsamples = 10\nvalue = [6, 8]\nclass = no", fillcolor="#cee6f8"] ;
525 -> 526 ;
527 [label="day <= -1.49\ngini = 0.47\nsamples = 5\nvalue = [5, 3]\nclass = yes", fillcolor="#f5cdb0"] ;
526 -> 527 ;
528 [label="gini = 0.0\nsamples = 2\nvalue = [0, 2]\nclass = no", fillcolor="#399de5"] ;
527 -> 528 ;
529 [label="month <= 0.11\ngini = 0.28\nsamples = 3\nvalue = [5, 1]\nclass = yes", fillcolor="#ea9a61"] ;
527 -> 529 ;
530 [label="gini = 0.0\nsamples = 1\nvalue = [0, 1]\nclass = no", fillcolor="#399de5"] ;
529 -> 530 ;
531 [label="gini = 0.0\nsamples = 2\nvalue = [5, 0]\nclass = yes", fillcolor="#e58139"] ;
529 -> 531 ;
532 [label="day <= -1.69\ngini = 0.28\nsamples = 5\nvalue = [1, 5]\nclass = no", fillcolor="#61b1ea"] ;
526 -> 532 ;
533 [label="gini = 0.0\nsamples = 3\nvalue = [0, 4]\nclass = no", fillcolor="#399de5"] ;
532 -> 533 ;
534 [label="default <= 0.5\ngini = 0.5\nsamples = 2\nvalue = [1, 1]\nclass = yes", fillcolor="#ffffff"] ;
532 -> 534 ;
535 [label="gini = 0.0\nsamples = 1\nvalue = [0, 1]\nclass = no", fillcolor="#399de5"] ;
534 -> 535 ;
536 [label="gini = 0.0\nsamples = 1\nvalue = [1, 0]\nclass = yes", fillcolor="#e58139"] ;
534 -> 536 ;
537 [label="gini = 0.0\nsamples = 9\nvalue = [0, 15]\nclass = no", fillcolor="#399de5"] ;
525 -> 537 ;
538 [label="gini = 0.0\nsamples = 14\nvalue = [0, 25]\nclass = no", fillcolor="#399de5"] ;
520 -> 538 ;
539 [label="month <= -1.6\ngini = 0.21\nsamples = 34\nvalue = [6, 43]\nclass = no", fillcolor="#55abe9"] ;
355 -> 539 ;
540 [label="campaign <= -0.38\ngini = 0.38\nsamples = 4\nvalue = [3, 1]\nclass = yes", fillcolor="#eeab7b"] ;
539 -> 540 ;
541 [label="gini = 0.0\nsamples = 1\nvalue = [0, 1]\nclass = no", fillcolor="#399de5"] ;
540 -> 541 ;
542 [label="gini = 0.0\nsamples = 3\nvalue = [3, 0]\nclass = yes", fillcolor="#e58139"] ;
540 -> 542 ;
543 [label="previous <= 0.5\ngini = 0.12\nsamples = 30\nvalue = [3, 42]\nclass = no", fillcolor="#47a4e7"] ;
539 -> 543 ;
544 [label="gini = 0.0\nsamples = 19\nvalue = [0, 33]\nclass = no", fillcolor="#399de5"] ;
543 -> 544 ;
545 [label="age <= -1.42\ngini = 0.38\nsamples = 11\nvalue = [3, 9]\nclass = no", fillcolor="#7bbeee"] ;
543 -> 545 ;
546 [label="gini = 0.0\nsamples = 4\nvalue = [0, 4]\nclass = no", fillcolor="#399de5"] ;
545 -> 546 ;
547 [label="campaign <= 1.15\ngini = 0.47\nsamples = 7\nvalue = [3, 5]\nclass = no", fillcolor="#b0d8f5"] ;
545 -> 547 ;
548 [label="balance <= -0.36\ngini = 0.28\nsamples = 6\nvalue = [1, 5]\nclass = no", fillcolor="#61b1ea"] ;
547 -> 548 ;
549 [label="gini = 0.0\nsamples = 1\nvalue = [1, 0]\nclass = yes", fillcolor="#e58139"] ;
548 -> 549 ;
550 [label="gini = 0.0\nsamples = 5\nvalue = [0, 5]\nclass = no", fillcolor="#399de5"] ;
548 -> 550 ;
551 [label="gini = 0.0\nsamples = 1\nvalue = [2, 0]\nclass = yes", fillcolor="#e58139"] ;
547 -> 551 ;
552 [label="job_student <= 0.5\ngini = 0.37\nsamples = 18\nvalue = [7, 22]\nclass = no", fillcolor="#78bced"] ;
352 -> 552 ;
553 [label="age <= -1.36\ngini = 0.36\nsamples = 16\nvalue = [6, 20]\nclass = no", fillcolor="#74baed"] ;
552 -> 553 ;
554 [label="job_services <= 0.5\ngini = 0.49\nsamples = 5\nvalue = [5, 4]\nclass = yes", fillcolor="#fae6d7"] ;
553 -> 554 ;
555 [label="job_management <= 0.5\ngini = 0.49\nsamples = 4\nvalue = [3, 4]\nclass = no", fillcolor="#cee6f8"] ;
554 -> 555 ;
556 [label="balance <= -0.32\ngini = 0.44\nsamples = 3\nvalue = [2, 4]\nclass = no", fillcolor="#9ccef2"] ;
555 -> 556 ;
557 [label="gini = 0.0\nsamples = 1\nvalue = [2, 0]\nclass = yes", fillcolor="#e58139"] ;
556 -> 557 ;
558 [label="gini = 0.0\nsamples = 2\nvalue = [0, 4]\nclass = no", fillcolor="#399de5"] ;
556 -> 558 ;
559 [label="gini = 0.0\nsamples = 1\nvalue = [1, 0]\nclass = yes", fillcolor="#e58139"] ;
555 -> 559 ;
560 [label="gini = 0.0\nsamples = 1\nvalue = [2, 0]\nclass = yes", fillcolor="#e58139"] ;
554 -> 560 ;
561 [label="age <= -1.24\ngini = 0.11\nsamples = 11\nvalue = [1, 16]\nclass = no", fillcolor="#45a3e7"] ;
553 -> 561 ;
562 [label="duration <= 1.44\ngini = 0.24\nsamples = 3\nvalue = [1, 6]\nclass = no", fillcolor="#5aade9"] ;
561 -> 562 ;
563 [label="gini = 0.0\nsamples = 2\nvalue = [0, 6]\nclass = no", fillcolor="#399de5"] ;
562 -> 563 ;
564 [label="gini = 0.0\nsamples = 1\nvalue = [1, 0]\nclass = yes", fillcolor="#e58139"] ;
562 -> 564 ;
565 [label="gini = 0.0\nsamples = 8\nvalue = [0, 10]\nclass = no", fillcolor="#399de5"] ;
561 -> 565 ;
566 [label="campaign <= 0.65\ngini = 0.44\nsamples = 2\nvalue = [1, 2]\nclass = no", fillcolor="#9ccef2"] ;
552 -> 566 ;
567 [label="gini = 0.0\nsamples = 1\nvalue = [0, 2]\nclass = no", fillcolor="#399de5"] ;
566 -> 567 ;
568 [label="gini = 0.0\nsamples = 1\nvalue = [1, 0]\nclass = yes", fillcolor="#e58139"] ;
566 -> 568 ;
569 [label="job_blue-collar <= 0.5\ngini = 0.49\nsamples = 15\nvalue = [11, 15]\nclass = no", fillcolor="#cae5f8"] ;
351 -> 569 ;
570 [label="day <= -1.25\ngini = 0.46\nsamples = 11\nvalue = [11, 6]\nclass = yes", fillcolor="#f3c6a5"] ;
569 -> 570 ;
571 [label="job_admin. <= 0.5\ngini = 0.28\nsamples = 9\nvalue = [10, 2]\nclass = yes", fillcolor="#ea9a61"] ;
570 -> 571 ;
572 [label="balance <= 0.65\ngini = 0.17\nsamples = 8\nvalue = [10, 1]\nclass = yes", fillcolor="#e88e4d"] ;
571 -> 572 ;
573 [label="gini = 0.0\nsamples = 7\nvalue = [10, 0]\nclass = yes", fillcolor="#e58139"] ;
572 -> 573 ;
574 [label="gini = 0.0\nsamples = 1\nvalue = [0, 1]\nclass = no", fillcolor="#399de5"] ;
572 -> 574 ;
575 [label="gini = 0.0\nsamples = 1\nvalue = [0, 1]\nclass = no", fillcolor="#399de5"] ;
571 -> 575 ;
576 [label="balance <= -0.28\ngini = 0.32\nsamples = 2\nvalue = [1, 4]\nclass = no", fillcolor="#6ab6ec"] ;
570 -> 576 ;
577 [label="gini = 0.0\nsamples = 1\nvalue = [0, 4]\nclass = no", fillcolor="#399de5"] ;
576 -> 577 ;
578 [label="gini = 0.0\nsamples = 1\nvalue = [1, 0]\nclass = yes", fillcolor="#e58139"] ;
576 -> 578 ;
579 [label="gini = 0.0\nsamples = 4\nvalue = [0, 9]\nclass = no", fillcolor="#399de5"] ;
569 -> 579 ;
580 [label="balance <= 0.47\ngini = 0.41\nsamples = 81\nvalue = [39, 94]\nclass = no", fillcolor="#8bc6f0"] ;
350 -> 580 ;
581 [label="job_unemployed <= 0.5\ngini = 0.37\nsamples = 70\nvalue = [28, 86]\nclass = no", fillcolor="#79bded"] ;
580 -> 581 ;
582 [label="job_blue-collar <= 0.5\ngini = 0.33\nsamples = 68\nvalue = [23, 86]\nclass = no", fillcolor="#6eb7ec"] ;
581 -> 582 ;
583 [label="month <= -1.58\ngini = 0.29\nsamples = 61\nvalue = [17, 78]\nclass = no", fillcolor="#64b2eb"] ;
582 -> 583 ;
584 [label="age <= -0.99\ngini = 0.17\nsamples = 5\nvalue = [10, 1]\nclass = yes", fillcolor="#e88e4d"] ;
583 -> 584 ;
585 [label="gini = 0.0\nsamples = 4\nvalue = [10, 0]\nclass = yes", fillcolor="#e58139"] ;
584 -> 585 ;
586 [label="gini = 0.0\nsamples = 1\nvalue = [0, 1]\nclass = no", fillcolor="#399de5"] ;
584 -> 586 ;
587 [label="campaign <= 2.04\ngini = 0.15\nsamples = 56\nvalue = [7, 77]\nclass = no", fillcolor="#4ba6e7"] ;
583 -> 587 ;
588 [label="job_services <= 0.5\ngini = 0.09\nsamples = 53\nvalue = [4, 77]\nclass = no", fillcolor="#43a2e6"] ;
587 -> 588 ;
589 [label="job_self-employed <= 0.5\ngini = 0.07\nsamples = 52\nvalue = [3, 77]\nclass = no", fillcolor="#41a1e6"] ;
588 -> 589 ;
590 [label="balance <= 0.31\ngini = 0.08\nsamples = 47\nvalue = [3, 68]\nclass = no", fillcolor="#42a1e6"] ;
589 -> 590 ;
591 [label="education <= 0.52\ngini = 0.03\nsamples = 43\nvalue = [1, 60]\nclass = no", fillcolor="#3c9fe5"] ;
590 -> 591 ;
592 [label="gini = 0.0\nsamples = 27\nvalue = [0, 40]\nclass = no", fillcolor="#399de5"] ;
591 -> 592 ;
593 [label="duration <= 0.89\ngini = 0.09\nsamples = 16\nvalue = [1, 20]\nclass = no", fillcolor="#43a2e6"] ;
591 -> 593 ;
594 [label="gini = 0.0\nsamples = 13\nvalue = [0, 16]\nclass = no", fillcolor="#399de5"] ;
593 -> 594 ;
595 [label="previous <= 0.5\ngini = 0.32\nsamples = 3\nvalue = [1, 4]\nclass = no", fillcolor="#6ab6ec"] ;
593 -> 595 ;
596 [label="age <= -1.24\ngini = 0.5\nsamples = 2\nvalue = [1, 1]\nclass = yes", fillcolor="#ffffff"] ;
595 -> 596 ;
597 [label="gini = 0.0\nsamples = 1\nvalue = [0, 1]\nclass = no", fillcolor="#399de5"] ;
596 -> 597 ;
598 [label="gini = 0.0\nsamples = 1\nvalue = [1, 0]\nclass = yes", fillcolor="#e58139"] ;
596 -> 598 ;
599 [label="gini = 0.0\nsamples = 1\nvalue = [0, 3]\nclass = no", fillcolor="#399de5"] ;
595 -> 599 ;
600 [label="balance <= 0.31\ngini = 0.32\nsamples = 4\nvalue = [2, 8]\nclass = no", fillcolor="#6ab6ec"] ;
590 -> 600 ;
601 [label="gini = 0.0\nsamples = 1\nvalue = [2, 0]\nclass = yes", fillcolor="#e58139"] ;
600 -> 601 ;
602 [label="gini = 0.0\nsamples = 3\nvalue = [0, 8]\nclass = no", fillcolor="#399de5"] ;
600 -> 602 ;
603 [label="gini = 0.0\nsamples = 5\nvalue = [0, 9]\nclass = no", fillcolor="#399de5"] ;
589 -> 603 ;
604 [label="gini = 0.0\nsamples = 1\nvalue = [1, 0]\nclass = yes", fillcolor="#e58139"] ;
588 -> 604 ;
605 [label="gini = 0.0\nsamples = 3\nvalue = [3, 0]\nclass = yes", fillcolor="#e58139"] ;
587 -> 605 ;
606 [label="education <= -1.71\ngini = 0.49\nsamples = 7\nvalue = [6, 8]\nclass = no", fillcolor="#cee6f8"] ;
582 -> 606 ;
607 [label="campaign <= -0.38\ngini = 0.32\nsamples = 3\nvalue = [4, 1]\nclass = yes", fillcolor="#eca06a"] ;
606 -> 607 ;
608 [label="gini = 0.0\nsamples = 1\nvalue = [0, 1]\nclass = no", fillcolor="#399de5"] ;
607 -> 608 ;
609 [label="gini = 0.0\nsamples = 2\nvalue = [4, 0]\nclass = yes", fillcolor="#e58139"] ;
607 -> 609 ;
610 [label="age <= -1.23\ngini = 0.35\nsamples = 4\nvalue = [2, 7]\nclass = no", fillcolor="#72b9ec"] ;
606 -> 610 ;
611 [label="gini = 0.0\nsamples = 1\nvalue = [2, 0]\nclass = yes", fillcolor="#e58139"] ;
610 -> 611 ;
612 [label="gini = 0.0\nsamples = 3\nvalue = [0, 7]\nclass = no", fillcolor="#399de5"] ;
610 -> 612 ;
613 [label="gini = 0.0\nsamples = 2\nvalue = [5, 0]\nclass = yes", fillcolor="#e58139"] ;
581 -> 613 ;
614 [label="balance <= 2.06\ngini = 0.49\nsamples = 11\nvalue = [11, 8]\nclass = yes", fillcolor="#f8ddc9"] ;
580 -> 614 ;
615 [label="job_blue-collar <= 0.5\ngini = 0.39\nsamples = 8\nvalue = [11, 4]\nclass = yes", fillcolor="#eeaf81"] ;
614 -> 615 ;
616 [label="balance <= 1.0\ngini = 0.44\nsamples = 3\nvalue = [2, 4]\nclass = no", fillcolor="#9ccef2"] ;
615 -> 616 ;
617 [label="gini = 0.0\nsamples = 2\nvalue = [0, 4]\nclass = no", fillcolor="#399de5"] ;
616 -> 617 ;
618 [label="gini = 0.0\nsamples = 1\nvalue = [2, 0]\nclass = yes", fillcolor="#e58139"] ;
616 -> 618 ;
619 [label="gini = 0.0\nsamples = 5\nvalue = [9, 0]\nclass = yes", fillcolor="#e58139"] ;
615 -> 619 ;
620 [label="gini = 0.0\nsamples = 3\nvalue = [0, 4]\nclass = no", fillcolor="#399de5"] ;
614 -> 620 ;
621 [label="campaign <= 0.13\ngini = 0.42\nsamples = 2489\nvalue = [1192, 2734]\nclass = no", fillcolor="#8fc8f0"] ;
225 -> 621 ;
622 [label="day <= -0.91\ngini = 0.32\nsamples = 1406\nvalue = [446, 1740]\nclass = no", fillcolor="#6cb6ec"] ;
621 -> 622 ;
623 [label="previous <= 0.5\ngini = 0.46\nsamples = 34\nvalue = [33, 19]\nclass = yes", fillcolor="#f4caab"] ;
622 -> 623 ;
624 [label="duration <= 1.82\ngini = 0.31\nsamples = 21\nvalue = [25, 6]\nclass = yes", fillcolor="#eb9f69"] ;
623 -> 624 ;
625 [label="job_services <= 0.5\ngini = 0.14\nsamples = 17\nvalue = [24, 2]\nclass = yes", fillcolor="#e78c49"] ;
624 -> 625 ;
626 [label="marital_married <= 0.5\ngini = 0.17\nsamples = 14\nvalue = [19, 2]\nclass = yes", fillcolor="#e88e4e"] ;
625 -> 626 ;
627 [label="job_self-employed <= 0.5\ngini = 0.24\nsamples = 10\nvalue = [12, 2]\nclass = yes", fillcolor="#e9965a"] ;
626 -> 627 ;
628 [label="month <= 1.39\ngini = 0.26\nsamples = 9\nvalue = [11, 2]\nclass = yes", fillcolor="#ea985d"] ;
627 -> 628 ;
629 [label="balance <= -0.33\ngini = 0.15\nsamples = 8\nvalue = [11, 1]\nclass = yes", fillcolor="#e78c4b"] ;
628 -> 629 ;
630 [label="gini = 0.0\nsamples = 5\nvalue = [8, 0]\nclass = yes", fillcolor="#e58139"] ;
629 -> 630 ;
631 [label="balance <= -0.24\ngini = 0.38\nsamples = 3\nvalue = [3, 1]\nclass = yes", fillcolor="#eeab7b"] ;
629 -> 631 ;
632 [label="gini = 0.0\nsamples = 1\nvalue = [0, 1]\nclass = no", fillcolor="#399de5"] ;
631 -> 632 ;
633 [label="gini = 0.0\nsamples = 2\nvalue = [3, 0]\nclass = yes", fillcolor="#e58139"] ;
631 -> 633 ;
634 [label="gini = 0.0\nsamples = 1\nvalue = [0, 1]\nclass = no", fillcolor="#399de5"] ;
628 -> 634 ;
635 [label="gini = 0.0\nsamples = 1\nvalue = [1, 0]\nclass = yes", fillcolor="#e58139"] ;
627 -> 635 ;
636 [label="gini = 0.0\nsamples = 4\nvalue = [7, 0]\nclass = yes", fillcolor="#e58139"] ;
626 -> 636 ;
637 [label="gini = 0.0\nsamples = 3\nvalue = [5, 0]\nclass = yes", fillcolor="#e58139"] ;
625 -> 637 ;
638 [label="month <= 0.94\ngini = 0.32\nsamples = 4\nvalue = [1, 4]\nclass = no", fillcolor="#6ab6ec"] ;
624 -> 638 ;
639 [label="gini = 0.0\nsamples = 3\nvalue = [0, 4]\nclass = no", fillcolor="#399de5"] ;
638 -> 639 ;
640 [label="gini = 0.0\nsamples = 1\nvalue = [1, 0]\nclass = yes", fillcolor="#e58139"] ;
638 -> 640 ;
641 [label="balance <= 1.27\ngini = 0.47\nsamples = 13\nvalue = [8, 13]\nclass = no", fillcolor="#b3d9f5"] ;
623 -> 641 ;
642 [label="marital_married <= 0.5\ngini = 0.5\nsamples = 12\nvalue = [8, 8]\nclass = yes", fillcolor="#ffffff"] ;
641 -> 642 ;
643 [label="loan <= 0.5\ngini = 0.44\nsamples = 8\nvalue = [4, 8]\nclass = no", fillcolor="#9ccef2"] ;
642 -> 643 ;
644 [label="education <= 0.52\ngini = 0.32\nsamples = 7\nvalue = [2, 8]\nclass = no", fillcolor="#6ab6ec"] ;
643 -> 644 ;
645 [label="gini = 0.0\nsamples = 4\nvalue = [0, 6]\nclass = no", fillcolor="#399de5"] ;
644 -> 645 ;
646 [label="contact_cellular <= 0.5\ngini = 0.5\nsamples = 3\nvalue = [2, 2]\nclass = yes", fillcolor="#ffffff"] ;
644 -> 646 ;
647 [label="gini = 0.0\nsamples = 1\nvalue = [0, 1]\nclass = no", fillcolor="#399de5"] ;
646 -> 647 ;
648 [label="balance <= 0.3\ngini = 0.44\nsamples = 2\nvalue = [2, 1]\nclass = yes", fillcolor="#f2c09c"] ;
646 -> 648 ;
649 [label="gini = 0.0\nsamples = 1\nvalue = [0, 1]\nclass = no", fillcolor="#399de5"] ;
648 -> 649 ;
650 [label="gini = 0.0\nsamples = 1\nvalue = [2, 0]\nclass = yes", fillcolor="#e58139"] ;
648 -> 650 ;
651 [label="gini = 0.0\nsamples = 1\nvalue = [2, 0]\nclass = yes", fillcolor="#e58139"] ;
643 -> 651 ;
652 [label="gini = 0.0\nsamples = 4\nvalue = [4, 0]\nclass = yes", fillcolor="#e58139"] ;
642 -> 652 ;
653 [label="gini = 0.0\nsamples = 1\nvalue = [0, 5]\nclass = no", fillcolor="#399de5"] ;
641 -> 653 ;
654 [label="loan <= 0.5\ngini = 0.31\nsamples = 1372\nvalue = [413, 1721]\nclass = no", fillcolor="#69b5eb"] ;
622 -> 654 ;
655 [label="education <= -1.73\ngini = 0.28\nsamples = 1311\nvalue = [340, 1703]\nclass = no", fillcolor="#61b1ea"] ;
654 -> 655 ;
656 [label="contact_telephone <= 0.5\ngini = 0.49\nsamples = 61\nvalue = [56, 40]\nclass = yes", fillcolor="#f8dbc6"] ;
655 -> 656 ;
657 [label="previous <= 0.5\ngini = 0.47\nsamples = 51\nvalue = [51, 31]\nclass = yes", fillcolor="#f5ceb1"] ;
656 -> 657 ;
658 [label="duration <= 0.49\ngini = 0.4\nsamples = 43\nvalue = [49, 19]\nclass = yes", fillcolor="#efb286"] ;
657 -> 658 ;
659 [label="month <= -0.91\ngini = 0.49\nsamples = 28\nvalue = [24, 17]\nclass = yes", fillcolor="#f7dac5"] ;
658 -> 659 ;
660 [label="balance <= -0.41\ngini = 0.15\nsamples = 7\nvalue = [1, 11]\nclass = no", fillcolor="#4ba6e7"] ;
659 -> 660 ;
661 [label="gini = 0.0\nsamples = 1\nvalue = [1, 0]\nclass = yes", fillcolor="#e58139"] ;
660 -> 661 ;
662 [label="gini = 0.0\nsamples = 6\nvalue = [0, 11]\nclass = no", fillcolor="#399de5"] ;
660 -> 662 ;
663 [label="campaign <= -0.86\ngini = 0.33\nsamples = 21\nvalue = [23, 6]\nclass = yes", fillcolor="#eca26d"] ;
659 -> 663 ;
664 [label="duration <= -0.05\ngini = 0.2\nsamples = 19\nvalue = [23, 3]\nclass = yes", fillcolor="#e89153"] ;
663 -> 664 ;
665 [label="gini = 0.0\nsamples = 10\nvalue = [16, 0]\nclass = yes", fillcolor="#e58139"] ;
664 -> 665 ;
666 [label="marital_married <= 0.5\ngini = 0.42\nsamples = 9\nvalue = [7, 3]\nclass = yes", fillcolor="#f0b78e"] ;
664 -> 666 ;
667 [label="age <= -0.43\ngini = 0.5\nsamples = 5\nvalue = [3, 3]\nclass = yes", fillcolor="#ffffff"] ;
666 -> 667 ;
668 [label="gini = 0.0\nsamples = 2\nvalue = [0, 2]\nclass = no", fillcolor="#399de5"] ;
667 -> 668 ;
669 [label="marital_single <= 0.5\ngini = 0.38\nsamples = 3\nvalue = [3, 1]\nclass = yes", fillcolor="#eeab7b"] ;
667 -> 669 ;
670 [label="gini = 0.0\nsamples = 1\nvalue = [0, 1]\nclass = no", fillcolor="#399de5"] ;
669 -> 670 ;
671 [label="gini = 0.0\nsamples = 2\nvalue = [3, 0]\nclass = yes", fillcolor="#e58139"] ;
669 -> 671 ;
672 [label="gini = 0.0\nsamples = 4\nvalue = [4, 0]\nclass = yes", fillcolor="#e58139"] ;
666 -> 672 ;
673 [label="gini = 0.0\nsamples = 2\nvalue = [0, 3]\nclass = no", fillcolor="#399de5"] ;
663 -> 673 ;
674 [label="balance <= 0.25\ngini = 0.14\nsamples = 15\nvalue = [25, 2]\nclass = yes", fillcolor="#e78b49"] ;
658 -> 674 ;
675 [label="gini = 0.0\nsamples = 11\nvalue = [19, 0]\nclass = yes", fillcolor="#e58139"] ;
674 -> 675 ;
676 [label="day <= 0.79\ngini = 0.38\nsamples = 4\nvalue = [6, 2]\nclass = yes", fillcolor="#eeab7b"] ;
674 -> 676 ;
677 [label="gini = 0.0\nsamples = 2\nvalue = [5, 0]\nclass = yes", fillcolor="#e58139"] ;
676 -> 677 ;
678 [label="marital_married <= 0.5\ngini = 0.44\nsamples = 2\nvalue = [1, 2]\nclass = no", fillcolor="#9ccef2"] ;
676 -> 678 ;
679 [label="gini = 0.0\nsamples = 1\nvalue = [0, 2]\nclass = no", fillcolor="#399de5"] ;
678 -> 679 ;
680 [label="gini = 0.0\nsamples = 1\nvalue = [1, 0]\nclass = yes", fillcolor="#e58139"] ;
678 -> 680 ;
681 [label="balance <= -0.06\ngini = 0.24\nsamples = 8\nvalue = [2, 12]\nclass = no", fillcolor="#5aade9"] ;
657 -> 681 ;
682 [label="duration <= -0.4\ngini = 0.44\nsamples = 3\nvalue = [2, 1]\nclass = yes", fillcolor="#f2c09c"] ;
681 -> 682 ;
683 [label="gini = 0.0\nsamples = 1\nvalue = [0, 1]\nclass = no", fillcolor="#399de5"] ;
682 -> 683 ;
684 [label="gini = 0.0\nsamples = 2\nvalue = [2, 0]\nclass = yes", fillcolor="#e58139"] ;
682 -> 684 ;
685 [label="gini = 0.0\nsamples = 5\nvalue = [0, 11]\nclass = no", fillcolor="#399de5"] ;
681 -> 685 ;
686 [label="job_retired <= 0.5\ngini = 0.46\nsamples = 10\nvalue = [5, 9]\nclass = no", fillcolor="#a7d3f3"] ;
656 -> 686 ;
687 [label="age <= 0.9\ngini = 0.38\nsamples = 9\nvalue = [3, 9]\nclass = no", fillcolor="#7bbeee"] ;
686 -> 687 ;
688 [label="gini = 0.0\nsamples = 1\nvalue = [1, 0]\nclass = yes", fillcolor="#e58139"] ;
687 -> 688 ;
689 [label="job_entrepreneur <= 0.5\ngini = 0.3\nsamples = 8\nvalue = [2, 9]\nclass = no", fillcolor="#65b3eb"] ;
687 -> 689 ;
690 [label="gini = 0.0\nsamples = 7\nvalue = [0, 9]\nclass = no", fillcolor="#399de5"] ;
689 -> 690 ;
691 [label="gini = 0.0\nsamples = 1\nvalue = [2, 0]\nclass = yes", fillcolor="#e58139"] ;
689 -> 691 ;
692 [label="gini = 0.0\nsamples = 1\nvalue = [2, 0]\nclass = yes", fillcolor="#e58139"] ;
686 -> 692 ;
693 [label="job_entrepreneur <= 0.5\ngini = 0.25\nsamples = 1250\nvalue = [284, 1663]\nclass = no", fillcolor="#5baee9"] ;
655 -> 693 ;
694 [label="previous <= 0.5\ngini = 0.24\nsamples = 1241\nvalue = [274, 1662]\nclass = no", fillcolor="#5aade9"] ;
693 -> 694 ;
695 [label="job_self-employed <= 0.5\ngini = 0.29\nsamples = 774\nvalue = [215, 993]\nclass = no", fillcolor="#64b2eb"] ;
694 -> 695 ;
696 [label="job_blue-collar <= 0.5\ngini = 0.28\nsamples = 757\nvalue = [202, 974]\nclass = no", fillcolor="#62b1ea"] ;
695 -> 696 ;
697 [label="campaign <= -0.89\ngini = 0.27\nsamples = 705\nvalue = [173, 918]\nclass = no", fillcolor="#5eafea"] ;
696 -> 697 ;
698 [label="duration <= 0.42\ngini = 0.31\nsamples = 585\nvalue = [173, 735]\nclass = no", fillcolor="#68b4eb"] ;
697 -> 698 ;
699 [label="duration <= -0.66\ngini = 0.41\nsamples = 271\nvalue = [119, 300]\nclass = no", fillcolor="#88c4ef"] ;
698 -> 699 ;
700 [label="balance <= -0.18\ngini = 0.43\nsamples = 9\nvalue = [9, 4]\nclass = yes", fillcolor="#f1b991"] ;
699 -> 700 ;
701 [label="gini = 0.0\nsamples = 3\nvalue = [5, 0]\nclass = yes", fillcolor="#e58139"] ;
700 -> 701 ;
702 [label="duration <= -0.67\ngini = 0.5\nsamples = 6\nvalue = [4, 4]\nclass = yes", fillcolor="#ffffff"] ;
700 -> 702 ;
703 [label="gini = 0.0\nsamples = 3\nvalue = [0, 3]\nclass = no", fillcolor="#399de5"] ;
702 -> 703 ;
704 [label="age <= 0.62\ngini = 0.32\nsamples = 3\nvalue = [4, 1]\nclass = yes", fillcolor="#eca06a"] ;
702 -> 704 ;
705 [label="gini = 0.0\nsamples = 2\nvalue = [4, 0]\nclass = yes", fillcolor="#e58139"] ;
704 -> 705 ;
706 [label="gini = 0.0\nsamples = 1\nvalue = [0, 1]\nclass = no", fillcolor="#399de5"] ;
704 -> 706 ;
707 [label="education <= -0.24\ngini = 0.4\nsamples = 262\nvalue = [110, 296]\nclass = no", fillcolor="#83c1ef"] ;
699 -> 707 ;
708 [label="age <= 1.13\ngini = 0.46\nsamples = 132\nvalue = [72, 131]\nclass = no", fillcolor="#a6d3f3"] ;
707 -> 708 ;
709 [label="contact_cellular <= 0.5\ngini = 0.42\nsamples = 104\nvalue = [46, 109]\nclass = no", fillcolor="#8dc6f0"] ;
708 -> 709 ;
710 [label="age <= 0.68\ngini = 0.12\nsamples = 12\nvalue = [1, 14]\nclass = no", fillcolor="#47a4e7"] ;
709 -> 710 ;
711 [label="gini = 0.0\nsamples = 10\nvalue = [0, 13]\nclass = no", fillcolor="#399de5"] ;
710 -> 711 ;
712 [label="duration <= 0.0\ngini = 0.5\nsamples = 2\nvalue = [1, 1]\nclass = yes", fillcolor="#ffffff"] ;
710 -> 712 ;
713 [label="gini = 0.0\nsamples = 1\nvalue = [1, 0]\nclass = yes", fillcolor="#e58139"] ;
712 -> 713 ;
714 [label="gini = 0.0\nsamples = 1\nvalue = [0, 1]\nclass = no", fillcolor="#399de5"] ;
712 -> 714 ;
715 [label="duration <= 0.32\ngini = 0.44\nsamples = 92\nvalue = [45, 95]\nclass = no", fillcolor="#97cbf1"] ;
709 -> 715 ;
716 [label="day <= 0.68\ngini = 0.41\nsamples = 80\nvalue = [35, 87]\nclass = no", fillcolor="#89c4ef"] ;
715 -> 716 ;
717 [label="month <= -0.48\ngini = 0.45\nsamples = 63\nvalue = [34, 64]\nclass = no", fillcolor="#a2d1f3"] ;
716 -> 717 ;
718 [label="balance <= -0.51\ngini = 0.24\nsamples = 30\nvalue = [7, 42]\nclass = no", fillcolor="#5aade9"] ;
717 -> 718 ;
719 [label="gini = 0.0\nsamples = 1\nvalue = [2, 0]\nclass = yes", fillcolor="#e58139"] ;
718 -> 719 ;
720 [label="age <= 0.5\ngini = 0.19\nsamples = 29\nvalue = [5, 42]\nclass = no", fillcolor="#51a9e8"] ;
718 -> 720 ;
721 [label="duration <= 0.1\ngini = 0.09\nsamples = 25\nvalue = [2, 38]\nclass = no", fillcolor="#43a2e6"] ;
720 -> 721 ;
722 [label="gini = 0.0\nsamples = 20\nvalue = [0, 33]\nclass = no", fillcolor="#399de5"] ;
721 -> 722 ;
723 [label="month <= -1.42\ngini = 0.41\nsamples = 5\nvalue = [2, 5]\nclass = no", fillcolor="#88c4ef"] ;
721 -> 723 ;
724 [label="gini = 0.0\nsamples = 1\nvalue = [2, 0]\nclass = yes", fillcolor="#e58139"] ;
723 -> 724 ;
725 [label="gini = 0.0\nsamples = 4\nvalue = [0, 5]\nclass = no", fillcolor="#399de5"] ;
723 -> 725 ;
726 [label="duration <= -0.49\ngini = 0.49\nsamples = 4\nvalue = [3, 4]\nclass = no", fillcolor="#cee6f8"] ;
720 -> 726 ;
727 [label="gini = 0.0\nsamples = 2\nvalue = [3, 0]\nclass = yes", fillcolor="#e58139"] ;
726 -> 727 ;
728 [label="gini = 0.0\nsamples = 2\nvalue = [0, 4]\nclass = no", fillcolor="#399de5"] ;
726 -> 728 ;
729 [label="balance <= -0.4\ngini = 0.49\nsamples = 33\nvalue = [27, 22]\nclass = yes", fillcolor="#fae8da"] ;
717 -> 729 ;
730 [label="gini = 0.0\nsamples = 4\nvalue = [9, 0]\nclass = yes", fillcolor="#e58139"] ;
729 -> 730 ;
731 [label="job_unemployed <= 0.5\ngini = 0.5\nsamples = 29\nvalue = [18, 22]\nclass = no", fillcolor="#dbedfa"] ;
729 -> 731 ;
732 [label="duration <= -0.23\ngini = 0.49\nsamples = 28\nvalue = [17, 22]\nclass = no", fillcolor="#d2e9f9"] ;
731 -> 732 ;
733 [label="job_management <= 0.5\ngini = 0.36\nsamples = 12\nvalue = [13, 4]\nclass = yes", fillcolor="#eda876"] ;
732 -> 733 ;
734 [label="balance <= -0.35\ngini = 0.38\nsamples = 11\nvalue = [12, 4]\nclass = yes", fillcolor="#eeab7b"] ;
733 -> 734 ;
735 [label="gini = 0.0\nsamples = 1\nvalue = [0, 1]\nclass = no", fillcolor="#399de5"] ;
734 -> 735 ;
736 [label="marital_married <= 0.5\ngini = 0.32\nsamples = 10\nvalue = [12, 3]\nclass = yes", fillcolor="#eca06a"] ;
734 -> 736 ;
737 [label="job_technician <= 0.5\ngini = 0.24\nsamples = 6\nvalue = [6, 1]\nclass = yes", fillcolor="#e9965a"] ;
736 -> 737 ;
738 [label="month <= 0.83\ngini = 0.44\nsamples = 3\nvalue = [2, 1]\nclass = yes", fillcolor="#f2c09c"] ;
737 -> 738 ;
739 [label="gini = 0.0\nsamples = 2\nvalue = [2, 0]\nclass = yes", fillcolor="#e58139"] ;
738 -> 739 ;
740 [label="gini = 0.0\nsamples = 1\nvalue = [0, 1]\nclass = no", fillcolor="#399de5"] ;
738 -> 740 ;
741 [label="gini = 0.0\nsamples = 3\nvalue = [4, 0]\nclass = yes", fillcolor="#e58139"] ;
737 -> 741 ;
742 [label="month <= 1.39\ngini = 0.38\nsamples = 4\nvalue = [6, 2]\nclass = yes", fillcolor="#eeab7b"] ;
736 -> 742 ;
743 [label="gini = 0.0\nsamples = 3\nvalue = [6, 0]\nclass = yes", fillcolor="#e58139"] ;
742 -> 743 ;
744 [label="gini = 0.0\nsamples = 1\nvalue = [0, 2]\nclass = no", fillcolor="#399de5"] ;
742 -> 744 ;
745 [label="gini = 0.0\nsamples = 1\nvalue = [1, 0]\nclass = yes", fillcolor="#e58139"] ;
733 -> 745 ;
746 [label="month <= 0.15\ngini = 0.3\nsamples = 16\nvalue = [4, 18]\nclass = no", fillcolor="#65b3eb"] ;
732 -> 746 ;
747 [label="day <= 0.46\ngini = 0.49\nsamples = 6\nvalue = [4, 3]\nclass = yes", fillcolor="#f8e0ce"] ;
746 -> 747 ;
748 [label="gini = 0.0\nsamples = 2\nvalue = [2, 0]\nclass = yes", fillcolor="#e58139"] ;
747 -> 748 ;
749 [label="marital_married <= 0.5\ngini = 0.48\nsamples = 4\nvalue = [2, 3]\nclass = no", fillcolor="#bddef6"] ;
747 -> 749 ;
750 [label="gini = 0.0\nsamples = 2\nvalue = [0, 3]\nclass = no", fillcolor="#399de5"] ;
749 -> 750 ;
751 [label="gini = 0.0\nsamples = 2\nvalue = [2, 0]\nclass = yes", fillcolor="#e58139"] ;
749 -> 751 ;
752 [label="gini = 0.0\nsamples = 10\nvalue = [0, 15]\nclass = no", fillcolor="#399de5"] ;
746 -> 752 ;
753 [label="gini = 0.0\nsamples = 1\nvalue = [1, 0]\nclass = yes", fillcolor="#e58139"] ;
731 -> 753 ;
754 [label="day <= 1.01\ngini = 0.08\nsamples = 17\nvalue = [1, 23]\nclass = no", fillcolor="#42a1e6"] ;
716 -> 754 ;
755 [label="gini = 0.0\nsamples = 13\nvalue = [0, 19]\nclass = no", fillcolor="#399de5"] ;
754 -> 755 ;
756 [label="balance <= -0.37\ngini = 0.32\nsamples = 4\nvalue = [1, 4]\nclass = no", fillcolor="#6ab6ec"] ;
754 -> 756 ;
757 [label="gini = 0.0\nsamples = 1\nvalue = [1, 0]\nclass = yes", fillcolor="#e58139"] ;
756 -> 757 ;
758 [label="gini = 0.0\nsamples = 3\nvalue = [0, 4]\nclass = no", fillcolor="#399de5"] ;
756 -> 758 ;
759 [label="job_admin. <= 0.5\ngini = 0.49\nsamples = 12\nvalue = [10, 8]\nclass = yes", fillcolor="#fae6d7"] ;
715 -> 759 ;
760 [label="duration <= 0.41\ngini = 0.49\nsamples = 6\nvalue = [3, 4]\nclass = no", fillcolor="#cee6f8"] ;
759 -> 760 ;
761 [label="month <= 1.12\ngini = 0.48\nsamples = 5\nvalue = [3, 2]\nclass = yes", fillcolor="#f6d5bd"] ;
760 -> 761 ;
762 [label="marital_single <= 0.5\ngini = 0.38\nsamples = 4\nvalue = [3, 1]\nclass = yes", fillcolor="#eeab7b"] ;
761 -> 762 ;
763 [label="balance <= 0.36\ngini = 0.5\nsamples = 2\nvalue = [1, 1]\nclass = yes", fillcolor="#ffffff"] ;
762 -> 763 ;
764 [label="gini = 0.0\nsamples = 1\nvalue = [0, 1]\nclass = no", fillcolor="#399de5"] ;
763 -> 764 ;
765 [label="gini = 0.0\nsamples = 1\nvalue = [1, 0]\nclass = yes", fillcolor="#e58139"] ;
763 -> 765 ;
766 [label="gini = 0.0\nsamples = 2\nvalue = [2, 0]\nclass = yes", fillcolor="#e58139"] ;
762 -> 766 ;
767 [label="gini = 0.0\nsamples = 1\nvalue = [0, 1]\nclass = no", fillcolor="#399de5"] ;
761 -> 767 ;
768 [label="gini = 0.0\nsamples = 1\nvalue = [0, 2]\nclass = no", fillcolor="#399de5"] ;
760 -> 768 ;
769 [label="age <= -0.57\ngini = 0.46\nsamples = 6\nvalue = [7, 4]\nclass = yes", fillcolor="#f4c9aa"] ;
759 -> 769 ;
770 [label="gini = 0.0\nsamples = 2\nvalue = [5, 0]\nclass = yes", fillcolor="#e58139"] ;
769 -> 770 ;
771 [label="balance <= -0.29\ngini = 0.44\nsamples = 4\nvalue = [2, 4]\nclass = no", fillcolor="#9ccef2"] ;
769 -> 771 ;
772 [label="gini = 0.0\nsamples = 3\nvalue = [0, 4]\nclass = no", fillcolor="#399de5"] ;
771 -> 772 ;
773 [label="gini = 0.0\nsamples = 1\nvalue = [2, 0]\nclass = yes", fillcolor="#e58139"] ;
771 -> 773 ;
774 [label="balance <= 0.61\ngini = 0.5\nsamples = 28\nvalue = [26, 22]\nclass = yes", fillcolor="#fbece1"] ;
708 -> 774 ;
775 [label="month <= -1.36\ngini = 0.47\nsamples = 24\nvalue = [26, 16]\nclass = yes", fillcolor="#f5cfb3"] ;
774 -> 775 ;
776 [label="gini = 0.0\nsamples = 1\nvalue = [0, 2]\nclass = no", fillcolor="#399de5"] ;
775 -> 776 ;
777 [label="age <= 1.29\ngini = 0.45\nsamples = 23\nvalue = [26, 14]\nclass = yes", fillcolor="#f3c5a4"] ;
775 -> 777 ;
778 [label="gini = 0.0\nsamples = 5\nvalue = [10, 0]\nclass = yes", fillcolor="#e58139"] ;
777 -> 778 ;
779 [label="day <= 1.98\ngini = 0.5\nsamples = 18\nvalue = [16, 14]\nclass = yes", fillcolor="#fcefe6"] ;
777 -> 779 ;
780 [label="duration <= -0.12\ngini = 0.49\nsamples = 16\nvalue = [10, 14]\nclass = no", fillcolor="#c6e3f8"] ;
779 -> 780 ;
781 [label="duration <= -0.62\ngini = 0.24\nsamples = 5\nvalue = [6, 1]\nclass = yes", fillcolor="#e9965a"] ;
780 -> 781 ;
782 [label="gini = 0.0\nsamples = 1\nvalue = [0, 1]\nclass = no", fillcolor="#399de5"] ;
781 -> 782 ;
783 [label="gini = 0.0\nsamples = 4\nvalue = [6, 0]\nclass = yes", fillcolor="#e58139"] ;
781 -> 783 ;
784 [label="marital_divorced <= 0.5\ngini = 0.36\nsamples = 11\nvalue = [4, 13]\nclass = no", fillcolor="#76bbed"] ;
780 -> 784 ;
785 [label="balance <= -0.28\ngini = 0.5\nsamples = 5\nvalue = [4, 4]\nclass = yes", fillcolor="#ffffff"] ;
784 -> 785 ;
786 [label="gini = 0.0\nsamples = 3\nvalue = [0, 4]\nclass = no", fillcolor="#399de5"] ;
785 -> 786 ;
787 [label="gini = 0.0\nsamples = 2\nvalue = [4, 0]\nclass = yes", fillcolor="#e58139"] ;
785 -> 787 ;
788 [label="gini = 0.0\nsamples = 6\nvalue = [0, 9]\nclass = no", fillcolor="#399de5"] ;
784 -> 788 ;
789 [label="gini = 0.0\nsamples = 2\nvalue = [6, 0]\nclass = yes", fillcolor="#e58139"] ;
779 -> 789 ;
790 [label="gini = 0.0\nsamples = 4\nvalue = [0, 6]\nclass = no", fillcolor="#399de5"] ;
774 -> 790 ;
791 [label="marital_single <= 0.5\ngini = 0.3\nsamples = 130\nvalue = [38, 165]\nclass = no", fillcolor="#67b4eb"] ;
707 -> 791 ;
792 [label="job_technician <= 0.5\ngini = 0.25\nsamples = 86\nvalue = [19, 109]\nclass = no", fillcolor="#5caeea"] ;
791 -> 792 ;
793 [label="job_unemployed <= 0.5\ngini = 0.24\nsamples = 77\nvalue = [16, 101]\nclass = no", fillcolor="#58ade9"] ;
792 -> 793 ;
794 [label="education <= 1.07\ngini = 0.23\nsamples = 74\nvalue = [15, 98]\nclass = no", fillcolor="#57ace9"] ;
793 -> 794 ;
795 [label="gini = 0.0\nsamples = 1\nvalue = [0, 1]\nclass = no", fillcolor="#399de5"] ;
794 -> 795 ;
796 [label="contact_cellular <= 0.5\ngini = 0.23\nsamples = 73\nvalue = [15, 97]\nclass = no", fillcolor="#58ace9"] ;
794 -> 796 ;
797 [label="age <= 0.64\ngini = 0.44\nsamples = 5\nvalue = [2, 4]\nclass = no", fillcolor="#9ccef2"] ;
796 -> 797 ;
798 [label="gini = 0.0\nsamples = 1\nvalue = [2, 0]\nclass = yes", fillcolor="#e58139"] ;
797 -> 798 ;
799 [label="gini = 0.0\nsamples = 4\nvalue = [0, 4]\nclass = no", fillcolor="#399de5"] ;
797 -> 799 ;
800 [label="balance <= -0.45\ngini = 0.22\nsamples = 68\nvalue = [13, 93]\nclass = no", fillcolor="#55abe9"] ;
796 -> 800 ;
801 [label="gini = 0.0\nsamples = 2\nvalue = [5, 0]\nclass = yes", fillcolor="#e58139"] ;
800 -> 801 ;
802 [label="age <= 1.73\ngini = 0.15\nsamples = 66\nvalue = [8, 93]\nclass = no", fillcolor="#4aa5e7"] ;
800 -> 802 ;
803 [label="duration <= 0.13\ngini = 0.1\nsamples = 63\nvalue = [5, 92]\nclass = no", fillcolor="#44a2e6"] ;
802 -> 803 ;
804 [label="job_management <= 0.5\ngini = 0.07\nsamples = 55\nvalue = [3, 85]\nclass = no", fillcolor="#40a0e6"] ;
803 -> 804 ;
805 [label="gini = 0.0\nsamples = 9\nvalue = [0, 13]\nclass = no", fillcolor="#399de5"] ;
804 -> 805 ;
806 [label="month <= -0.53\ngini = 0.08\nsamples = 46\nvalue = [3, 72]\nclass = no", fillcolor="#41a1e6"] ;
804 -> 806 ;
807 [label="gini = 0.0\nsamples = 25\nvalue = [0, 41]\nclass = no", fillcolor="#399de5"] ;
806 -> 807 ;
808 [label="month <= -0.37\ngini = 0.16\nsamples = 21\nvalue = [3, 31]\nclass = no", fillcolor="#4ca6e8"] ;
806 -> 808 ;
809 [label="gini = 0.0\nsamples = 1\nvalue = [2, 0]\nclass = yes", fillcolor="#e58139"] ;
808 -> 809 ;
810 [label="marital_divorced <= 0.5\ngini = 0.06\nsamples = 20\nvalue = [1, 31]\nclass = no", fillcolor="#3fa0e6"] ;
808 -> 810 ;
811 [label="day <= 0.17\ngini = 0.07\nsamples = 17\nvalue = [1, 25]\nclass = no", fillcolor="#41a1e6"] ;
810 -> 811 ;
812 [label="gini = 0.0\nsamples = 11\nvalue = [0, 16]\nclass = no", fillcolor="#399de5"] ;
811 -> 812 ;
813 [label="marital_married <= 0.5\ngini = 0.18\nsamples = 6\nvalue = [1, 9]\nclass = no", fillcolor="#4fa8e8"] ;
811 -> 813 ;
814 [label="gini = 0.0\nsamples = 2\nvalue = [0, 4]\nclass = no", fillcolor="#399de5"] ;
813 -> 814 ;
815 [label="duration <= -0.35\ngini = 0.28\nsamples = 4\nvalue = [1, 5]\nclass = no", fillcolor="#61b1ea"] ;
813 -> 815 ;
816 [label="balance <= 0.08\ngini = 0.44\nsamples = 2\nvalue = [1, 2]\nclass = no", fillcolor="#9ccef2"] ;
815 -> 816 ;
817 [label="gini = 0.0\nsamples = 1\nvalue = [1, 0]\nclass = yes", fillcolor="#e58139"] ;
816 -> 817 ;
818 [label="gini = 0.0\nsamples = 1\nvalue = [0, 2]\nclass = no", fillcolor="#399de5"] ;
816 -> 818 ;
819 [label="gini = 0.0\nsamples = 2\nvalue = [0, 3]\nclass = no", fillcolor="#399de5"] ;
815 -> 819 ;
820 [label="gini = 0.0\nsamples = 3\nvalue = [0, 6]\nclass = no", fillcolor="#399de5"] ;
810 -> 820 ;
821 [label="duration <= 0.18\ngini = 0.35\nsamples = 8\nvalue = [2, 7]\nclass = no", fillcolor="#72b9ec"] ;
803 -> 821 ;
822 [label="gini = 0.0\nsamples = 1\nvalue = [1, 0]\nclass = yes", fillcolor="#e58139"] ;
821 -> 822 ;
823 [label="duration <= 0.34\ngini = 0.22\nsamples = 7\nvalue = [1, 7]\nclass = no", fillcolor="#55abe9"] ;
821 -> 823 ;
824 [label="gini = 0.0\nsamples = 4\nvalue = [0, 5]\nclass = no", fillcolor="#399de5"] ;
823 -> 824 ;
825 [label="balance <= -0.22\ngini = 0.44\nsamples = 3\nvalue = [1, 2]\nclass = no", fillcolor="#9ccef2"] ;
823 -> 825 ;
826 [label="gini = 0.0\nsamples = 1\nvalue = [1, 0]\nclass = yes", fillcolor="#e58139"] ;
825 -> 826 ;
827 [label="gini = 0.0\nsamples = 2\nvalue = [0, 2]\nclass = no", fillcolor="#399de5"] ;
825 -> 827 ;
828 [label="duration <= -0.2\ngini = 0.38\nsamples = 3\nvalue = [3, 1]\nclass = yes", fillcolor="#eeab7b"] ;
802 -> 828 ;
829 [label="gini = 0.0\nsamples = 2\nvalue = [3, 0]\nclass = yes", fillcolor="#e58139"] ;
828 -> 829 ;
830 [label="gini = 0.0\nsamples = 1\nvalue = [0, 1]\nclass = no", fillcolor="#399de5"] ;
828 -> 830 ;
831 [label="balance <= -0.33\ngini = 0.38\nsamples = 3\nvalue = [1, 3]\nclass = no", fillcolor="#7bbeee"] ;
793 -> 831 ;
832 [label="gini = 0.0\nsamples = 1\nvalue = [1, 0]\nclass = yes", fillcolor="#e58139"] ;
831 -> 832 ;
833 [label="gini = 0.0\nsamples = 2\nvalue = [0, 3]\nclass = no", fillcolor="#399de5"] ;
831 -> 833 ;
834 [label="marital_married <= 0.5\ngini = 0.4\nsamples = 9\nvalue = [3, 8]\nclass = no", fillcolor="#83c2ef"] ;
792 -> 834 ;
835 [label="balance <= 0.39\ngini = 0.5\nsamples = 2\nvalue = [1, 1]\nclass = yes", fillcolor="#ffffff"] ;
834 -> 835 ;
836 [label="gini = 0.0\nsamples = 1\nvalue = [0, 1]\nclass = no", fillcolor="#399de5"] ;
835 -> 836 ;
837 [label="gini = 0.0\nsamples = 1\nvalue = [1, 0]\nclass = yes", fillcolor="#e58139"] ;
835 -> 837 ;
838 [label="balance <= -0.48\ngini = 0.35\nsamples = 7\nvalue = [2, 7]\nclass = no", fillcolor="#72b9ec"] ;
834 -> 838 ;
839 [label="gini = 0.0\nsamples = 1\nvalue = [1, 0]\nclass = yes", fillcolor="#e58139"] ;
838 -> 839 ;
840 [label="month <= -0.03\ngini = 0.22\nsamples = 6\nvalue = [1, 7]\nclass = no", fillcolor="#55abe9"] ;
838 -> 840 ;
841 [label="duration <= -0.13\ngini = 0.38\nsamples = 3\nvalue = [1, 3]\nclass = no", fillcolor="#7bbeee"] ;
840 -> 841 ;
842 [label="gini = 0.0\nsamples = 2\nvalue = [0, 3]\nclass = no", fillcolor="#399de5"] ;
841 -> 842 ;
843 [label="gini = 0.0\nsamples = 1\nvalue = [1, 0]\nclass = yes", fillcolor="#e58139"] ;
841 -> 843 ;
844 [label="gini = 0.0\nsamples = 3\nvalue = [0, 4]\nclass = no", fillcolor="#399de5"] ;
840 -> 844 ;
845 [label="job_management <= 0.5\ngini = 0.38\nsamples = 44\nvalue = [19, 56]\nclass = no", fillcolor="#7cbeee"] ;
791 -> 845 ;
846 [label="duration <= -0.35\ngini = 0.31\nsamples = 24\nvalue = [8, 34]\nclass = no", fillcolor="#68b4eb"] ;
845 -> 846 ;
847 [label="gini = 0.0\nsamples = 1\nvalue = [3, 0]\nclass = yes", fillcolor="#e58139"] ;
846 -> 847 ;
848 [label="job_admin. <= 0.5\ngini = 0.22\nsamples = 23\nvalue = [5, 34]\nclass = no", fillcolor="#56abe9"] ;
846 -> 848 ;
849 [label="age <= 0.24\ngini = 0.25\nsamples = 21\nvalue = [5, 29]\nclass = no", fillcolor="#5baee9"] ;
848 -> 849 ;
850 [label="month <= 0.58\ngini = 0.13\nsamples = 17\nvalue = [2, 26]\nclass = no", fillcolor="#48a5e7"] ;
849 -> 850 ;
851 [label="day <= -0.49\ngini = 0.28\nsamples = 10\nvalue = [2, 10]\nclass = no", fillcolor="#61b1ea"] ;
850 -> 851 ;
852 [label="gini = 0.0\nsamples = 4\nvalue = [0, 5]\nclass = no", fillcolor="#399de5"] ;
851 -> 852 ;
853 [label="job_technician <= 0.5\ngini = 0.41\nsamples = 6\nvalue = [2, 5]\nclass = no", fillcolor="#88c4ef"] ;
851 -> 853 ;
854 [label="gini = 0.0\nsamples = 1\nvalue = [0, 1]\nclass = no", fillcolor="#399de5"] ;
853 -> 854 ;
855 [label="day <= -0.05\ngini = 0.44\nsamples = 5\nvalue = [2, 4]\nclass = no", fillcolor="#9ccef2"] ;
853 -> 855 ;
856 [label="balance <= -0.01\ngini = 0.44\nsamples = 3\nvalue = [2, 1]\nclass = yes", fillcolor="#f2c09c"] ;
855 -> 856 ;
857 [label="gini = 0.0\nsamples = 2\nvalue = [2, 0]\nclass = yes", fillcolor="#e58139"] ;
856 -> 857 ;
858 [label="gini = 0.0\nsamples = 1\nvalue = [0, 1]\nclass = no", fillcolor="#399de5"] ;
856 -> 858 ;
859 [label="gini = 0.0\nsamples = 2\nvalue = [0, 3]\nclass = no", fillcolor="#399de5"] ;
855 -> 859 ;
860 [label="gini = 0.0\nsamples = 7\nvalue = [0, 16]\nclass = no", fillcolor="#399de5"] ;
850 -> 860 ;
861 [label="day <= 0.32\ngini = 0.5\nsamples = 4\nvalue = [3, 3]\nclass = yes", fillcolor="#ffffff"] ;
849 -> 861 ;
862 [label="gini = 0.0\nsamples = 1\nvalue = [2, 0]\nclass = yes", fillcolor="#e58139"] ;
861 -> 862 ;
863 [label="day <= 1.36\ngini = 0.38\nsamples = 3\nvalue = [1, 3]\nclass = no", fillcolor="#7bbeee"] ;
861 -> 863 ;
864 [label="gini = 0.0\nsamples = 2\nvalue = [0, 3]\nclass = no", fillcolor="#399de5"] ;
863 -> 864 ;
865 [label="gini = 0.0\nsamples = 1\nvalue = [1, 0]\nclass = yes", fillcolor="#e58139"] ;
863 -> 865 ;
866 [label="gini = 0.0\nsamples = 2\nvalue = [0, 5]\nclass = no", fillcolor="#399de5"] ;
848 -> 866 ;
867 [label="balance <= -0.24\ngini = 0.44\nsamples = 20\nvalue = [11, 22]\nclass = no", fillcolor="#9ccef2"] ;
845 -> 867 ;
868 [label="gini = 0.0\nsamples = 3\nvalue = [8, 0]\nclass = yes", fillcolor="#e58139"] ;
867 -> 868 ;
869 [label="duration <= -0.48\ngini = 0.21\nsamples = 17\nvalue = [3, 22]\nclass = no", fillcolor="#54aae9"] ;
867 -> 869 ;
870 [label="gini = 0.0\nsamples = 1\nvalue = [1, 0]\nclass = yes", fillcolor="#e58139"] ;
869 -> 870 ;
871 [label="day <= -0.76\ngini = 0.15\nsamples = 16\nvalue = [2, 22]\nclass = no", fillcolor="#4ba6e7"] ;
869 -> 871 ;
872 [label="month <= -1.46\ngini = 0.44\nsamples = 2\nvalue = [2, 1]\nclass = yes", fillcolor="#f2c09c"] ;
871 -> 872 ;
873 [label="gini = 0.0\nsamples = 1\nvalue = [2, 0]\nclass = yes", fillcolor="#e58139"] ;
872 -> 873 ;
874 [label="gini = 0.0\nsamples = 1\nvalue = [0, 1]\nclass = no", fillcolor="#399de5"] ;
872 -> 874 ;
875 [label="gini = 0.0\nsamples = 14\nvalue = [0, 21]\nclass = no", fillcolor="#399de5"] ;
871 -> 875 ;
876 [label="job_services <= 0.5\ngini = 0.2\nsamples = 314\nvalue = [54, 435]\nclass = no", fillcolor="#52a9e8"] ;
698 -> 876 ;
877 [label="day <= -0.66\ngini = 0.2\nsamples = 288\nvalue = [52, 397]\nclass = no", fillcolor="#53aae8"] ;
876 -> 877 ;
878 [label="balance <= -0.39\ngini = 0.34\nsamples = 33\nvalue = [10, 36]\nclass = no", fillcolor="#70b8ec"] ;
877 -> 878 ;
879 [label="gini = 0.0\nsamples = 3\nvalue = [3, 0]\nclass = yes", fillcolor="#e58139"] ;
878 -> 879 ;
880 [label="age <= -0.79\ngini = 0.27\nsamples = 30\nvalue = [7, 36]\nclass = no", fillcolor="#5fb0ea"] ;
878 -> 880 ;
881 [label="gini = 0.0\nsamples = 13\nvalue = [0, 20]\nclass = no", fillcolor="#399de5"] ;
880 -> 881 ;
882 [label="job_admin. <= 0.5\ngini = 0.42\nsamples = 17\nvalue = [7, 16]\nclass = no", fillcolor="#90c8f0"] ;
880 -> 882 ;
883 [label="marital_single <= 0.5\ngini = 0.34\nsamples = 11\nvalue = [3, 11]\nclass = no", fillcolor="#6fb8ec"] ;
882 -> 883 ;
884 [label="job_management <= 0.5\ngini = 0.48\nsamples = 4\nvalue = [2, 3]\nclass = no", fillcolor="#bddef6"] ;
883 -> 884 ;
885 [label="gini = 0.0\nsamples = 1\nvalue = [0, 1]\nclass = no", fillcolor="#399de5"] ;
884 -> 885 ;
